svm_type c_svc
kernel_type rbf
gamma 0.5
nr_class 24
total_sv 58
rho -0.979256 -0.986158 -0.984532 -0.994031 -0.984954 -0.972366 -0.985667 -0.975676 -0.990205 -0.973644 0.00317581 -0.983935 -0.986938 -0.988628 -0.984771 -0.993094 -0.996789 -0.994411 -0.989216 -0.979138 -0.989564 -0.994173 -0.995589 -0.980209 -0.979504 -0.990335 -0.978718 0.978969 -0.979937 0.976051 -0.981834 0.977725 0.983253 -0.000175033 -0.979828 -0.979042 -0.980762 -0.989401 -0.991361 -0.99163 -0.98086 0.978605 -0.98248 -0.989644 -0.990636 -0.000784302 -0.985552 0.000269646 0.986911 0.00035855 0.985305 -0.00117439 0.985656 0.988242 0.979598 0.000799289 5.55273e-005 0.000138551 -0.984506 -0.98768 -0.987374 -0.000156876 0.985559 -0.00130101 -0.985848 -0.985627 -0.983275 0.00118648 0.984396 0.00108487 0.982346 5.08209e-006 0.984365 0.988433 0.976766 0.00112386 0.00126384 0.000992934 -0.983177 -0.983454 -0.983352 0.000419923 0.983573 -0.000418002 -0.983211 -0.98327 0.984571 0.992955 0.984763 0.992144 0.984885 0.992802 0.994358 0.994945 0.985042 0.984891 0.985541 0 0 0 0.985865 0.993489 0.988708 0 0 0.984596 -1.71559e-005 0.982971 -0.00143206 0.984453 0.987299 0.977034 -0.000199532 -0.000180683 -0.000186265 -0.984339 -0.985208 -0.984939 -0.000567385 0.984146 -0.00162475 -0.985493 -0.985489 -0.985229 -0.000321778 -0.989461 9.01739e-005 0.97589 -0.978964 -0.98587 -0.984705 -0.984913 -0.993522 -0.993668 -0.992898 -0.985956 -0.000303792 -0.986944 -0.992799 -0.992836 0.983727 -0.00165317 0.985143 0.987944 0.977425 -0.000117671 0.0002001 -0.000192046 -0.984632 -0.985571 -0.985128 -0.000642317 0.984374 -0.00153363 -0.984787 -0.985148 -0.989468 4.93684e-005 0.977255 -0.97833 -0.987917 -0.984405 -0.983292 -0.993023 -0.994883 -0.993233 -0.987144 -1.20701e-005 -0.985677 -0.992788 -0.994764 0.990448 0.989208 0.981444 0.00143746 0.00095321 0.000833111 -0.988356 -0.989739 -0.987848 0.00173631 0.98813 0.00169549 -0.984761 -0.985798 0.9793 -0.979779 -0.987593 -0.984864 -0.985206 -0.995198 -0.99351 -0.992856 -0.987037 -0.000160202 -0.986427 -0.993565 -0.993828 -0.984038 -0.988784 -0.987705 -0.988206 -0.994621 -0.994571 -0.994492 -0.988587 -0.978153 -0.988599 -0.993969 -0.994387 -0.978197 -0.97957 -0.977772 -0.988504 -0.994158 -0.991772 -0.982053 0.982542 -0.987062 -0.990779 -0.990442 -7.73294e-006 -0.00018497 -0.986728 -0.987891 -0.985645 -0.000443696 0.985462 -0.00162053 -0.985875 -0.986934 -0.000254195 -0.984493 -0.992016 -0.986775 0.000137438 0.98615 -0.00129654 -0.985866 -0.987081 -0.984397 -0.985215 -0.985584 -0.000799275 0.984354 -0.00091078 -0.984504 -0.984721 0 0 0.984039 0.992138 0.983277 0 0 0 0.990672 0.995723 0.989756 0 0 0.988666 0.994442 0.986304 0 0 0.988688 -0.00118774 -0.990331 -0.99226 -0.989383 -0.993868 -0.995219 -0.986936 -0.985953 0
label -10 10 9 11 12 5 8 7 -3 3 0 -9 -7 6 -2 -4 -5 -11 -12 -1 -6 -8 1 4
nr_sv 5 3 2 2 1 2 4 2 4 2 4 5 3 2 2 2 1 1 1 2 4 2 1 1
SV
0.01522204462604835 0.009586796960057544 0.00873059557738364 0.004049162749681338 0.009173672659392142 0.01841414486181068 0.00871058527633797 0.02632710591162444 0.01825035471789365 0.02469495660732107 0.03125 0.0239313745410256 0.007820532453747968 0.01274386703192569 0.008113993717484322 0.003684457881389846 0.0087166586775293 0.005795523968800173 0.01022413230992627 0.03055000749079024 0.01028081509639359 0.00385781508366621 0.005637299099968384 1:-0.8 2:0.0917226 3:1 4:-0.782882 6:-0.241977 8:0.640988 9:0.293295 10:0.0729477 11:-0.152494 12:-0.152132 13:-0.102444 14:-0.0464357 15:-0.238509 16:0.120752 17:0.331135 18:0.421001 19:-0.609374 20:-0.410979 21:-0.697159 22:-0.410979 23:-0.697159 24:-0.0511151 25:-0.996335 26:-0.755102 27:-0.578984 28:-0.976756 29:-1 30:-0.919203 31:-0.995833 32:-0.922293 33:0.000631911 34:-1 
0.01839772694859118 0.01373802399872172 0.01192486433183488 0.0101169714495448 0.01157383559803028 0.03033643054506546 0.01179846282625841 0.02846501261951721 0.01424703384806146 0.02575031370186268 0.03125 0.02189805067779247 0.01288118138846372 0.009220838563795601 0.01335638056367504 0.007831475535887339 0.008670093098023699 0.006518972045156787 0.01466173110735328 0.02629182852335833 0.02160402283862446 0.005693341213082982 0.004497682302371129 1:-1 2:0.0111857 3:1 4:-0.988726 6:-1 8:0.539964 9:0.11889 10:0.00983912 11:0.0670454 12:-0.0778573 13:0.0904145 14:0.0119402 15:-0.453369 16:-0.1758 17:0.0712276 18:1 19:-0.927026 20:-0.928659 21:-0.938499 22:-0.928659 23:-0.938499 24:-0.726978 25:-0.740015 26:-0.220853 27:-0.516846 28:-0.999146 29:-0.977981 30:-0.824008 31:-0.999671 32:-0.979326 33:-0.294641 34:-0.424073 
0.01942128674927403 0.01298870868139598 0.01559848717085502 0.005870241497848182 0.01457237299244815 0.02605614473090145 0.01444080129612451 0.02427384698195187 0.009146167894623337 0.02692681722653193 0.03125 0.01712358520548132 0.0124030307166051 0.01059785882462648 0.01494253513796415 0.006697505943863898 0.003448827961740176 0.007026369110946544 0.0113809721242339 0.02143032329552701 0.01011237424489555 0.006121408460970953 0.004131090366286289 1:-0.4 2:-0.114094 3:1 4:-0.412953 6:-0.168934 8:0.777487 9:0.23839 10:0.0528955 11:0.813573 12:0.0263552 13:0.704949 14:0.383901 15:-0.202767 16:-0.0925381 17:0.508734 18:-0.0418706 19:0.00961777 20:-0.138763 21:0.187416 22:-0.138763 23:0.187416 24:-0.428699 25:-0.938765 26:-0.314352 27:-0.331269 28:-0.65292 29:-1 30:-0.976013 31:-1 32:-1 33:-0.626913 34:-0.965835 
0.01927951427592639 0.01180443219771026 0.01315516720858339 0.005815148283022446 0.01308087269279025 0.0272063953662201 0.01281619482551556 0.02132862308019555 0.01106191091729487 0.02649616634551179 0.03125 0.01370474389950858 0.011307671785715 0.009808441128003755 0.01317761702204898 0.007446548546424485 0.001936971025852234 0.004428951445349142 0.009864871974968369 0.01850951790526184 0.008825495837040035 0.004889304273955123 0.00361808082365015 1:-1 2:-0.033557 3:1 4:-0.930484 6:-1 8:0.713411 9:0.117561 10:0.429158 11:-0.504217 12:-0.294236 13:-0.330132 14:-0.251972 15:-0.589173 16:-0.0767175 17:-0.0349571 18:0.588475 19:-0.942698 20:-0.96579 21:-0.948433 22:-0.96579 23:-0.948433 24:-1 25:-0.997917 26:-0.945662 27:-0.887335 28:-0.388017 29:-0.944983 30:-0.246999 31:-1 32:-0.555496 33:1 34:-0.900774 
0.02142942740016005 0.0143820381621145 0.01309088571134308 0.005398476019903235 0.01409924605733918 0.02298688449600232 0.01473395577576356 0.02460541140671093 0.009794532622126683 0.02113174611877253 0.03125 0.01709224567619204 0.01808758365546822 0.02012899445164849 0.01290947355882751 0.005590012092434434 0.00847744923685459 0.007480183429747355 0.01636829248351819 0.02821832278506258 0.01167729198304636 0.01068813096832473 0.01336584740772405 1:-0.7 2:-0.082774 3:1 4:-0.816772 6:-0.150943 8:0.503695 9:0.0568375 10:0.0472656 11:-0.167859 12:0.0450173 13:-0.166277 14:-0.0675135 15:-0.352639 16:0.00689577 17:0.470614 18:-0.13067 19:-0.680287 20:-0.819804 21:-0.690241 22:-0.819804 23:-0.690241 24:0.758856 25:-1 26:-1 27:-0.309375 28:-1 29:-1 30:-1 31:-1 32:-1 33:-0.987041 34:-1 
-0.03125 0.02126987866460451 0.02038352155564977 0.01159830168865479 0.02285053694704125 0.03125 0.02301276749870005 0.03125 0.02471619178589567 0.03125 0.03125 0.03125 0.02353262022875005 0.02291232990373749 0.02610813819077545 0.01073171090622812 0.01410471488611276 0.01540730784006993 0.02583350378343819 0.03125 0.02674563615519947 0.0116535117857453 0.01326338094604354 1:-0.3 2:-0.955257 3:1 4:-0.433928 6:-0.271015 8:0.575022 9:-0.0978871 10:0.147306 11:-0.155414 12:-0.0999614 13:-0.245354 14:-0.0697795 15:-0.177005 16:-0.00620902 17:0.273219 18:-0.36465 19:-0.740485 20:-0.676815 21:-0.812888 22:-0.676815 23:-0.812888 24:0.0477662 25:-0.750147 26:-0.239532 27:-0.979794 28:-0.973781 29:-0.423125 30:-0.970405 31:-0.828709 32:-0.988409 33:-0.974363 34:-0.504487 
-0.03125 0.02172867798584051 0.02233838822569836 0.009786760387778561 0.01962385870461178 0.03125 0.02058033015904893 0.03125 0.02036388004298556 0.03125 0.03125 0.03125 0.01995256179503653 0.0198494831002126 0.01811711351397001 0.01006993752425178 0.008482129128772331 0.007556020262975409 0.0185366536183518 0.03125 0.01770906407632053 0.009355076385997335 0.008722743987701884 1:-1 2:-0.181208 3:1 4:-0.943463 6:-0.168182 8:0.637046 9:0.2677 10:0.115067 11:-0.290437 12:-0.147001 13:-0.0523909 14:-0.303852 15:-0.257807 16:-0.0240641 17:0.36379 18:0.410862 19:-0.610144 20:-0.641529 21:-0.625649 22:-0.641529 23:-0.625649 24:-0.806955 25:-0.292929 26:-0.818432 27:-0.945904 28:-0.838427 29:-0.327614 30:-0.34118 31:-0.937818 32:0.539187 33:-0.516356 34:-0.938851 
-0.03125 0.01950144334955498 0.01977809021865187 0.009864937923566651 0.02002560434834697 0.03125 0.01890690234225103 0.03125 0.01741992817111876 0.03125 0.03125 0.03125 0.01901481797621342 0.01973818699604992 0.01827474829525454 0.0104483515695201 0.008663155985114907 0.008286671896954662 0.01812984259821001 0.03125 0.01804529976848 0.01024141182825737 0.009263875066254576 1:-0.8 2:-0.00671141 3:-1 4:-0.825535 6:-0.186317 8:0.63384 9:0.184273 10:0.0795195 11:-0.130663 12:-0.128058 13:-0.110516 14:0.0729957 15:-0.330197 16:0.127879 17:0.182866 18:0.389905 19:-0.891245 20:-0.870926 21:-0.923422 22:-0.870926 23:-0.923422 24:-0.578636 25:-0.684435 26:-0.66667 27:-0.983416 28:-0.586972 29:-0.874625 30:-0.0683915 31:-0.809224 32:0.637778 33:-0.787644 34:-0.132737 
-0.03125 -0.03125 0.03125 0.01463041614534192 0.03125 0.03125 0.03125 0.03125 0.03125 0.03125 0.03125 0.03125 0.03125 0.03125 0.03125 0.01523578806028315 0.01654868945973517 0.01776208114989922 0.03125 0.03125 0.03125 0.01653009843945626 0.0158484120545779 1:0.5 2:1 3:1 4:-0.163592 6:-0.107658 8:0.654974 9:0.296584 10:0.174714 11:-0.265601 12:-0.105042 13:-0.12782 14:-0.137528 15:-0.317278 16:-0.000271291 17:0.397374 18:0.215452 19:-0.895505 20:-0.891605 21:-0.929326 22:-0.891605 23:-0.929326 24:-0.260089 25:-1 26:-0.713026 27:0.202703 28:-0.952333 29:-0.86636 30:-0.997149 31:-0.999951 32:-0.989216 33:-0.860491 34:-0.940994 
-0.03125 -0.03125 0.03125 0.01661958385465808 0.03125 0.03125 0.03125 0.03125 0.03125 0.03125 0.03125 0.03125 0.03125 0.03125 0.03125 0.01601421193971685 0.01470131054026484 0.01348791885010078 0.03125 0.03125 0.03125 0.01471990156054374 0.0154015879454221 1:-0.6 2:-0.0738255 3:1 4:-0.771838 6:-0.181981 8:0.619099 9:0.453283 10:0.0566722 11:-0.167044 12:-0.0293055 13:-0.0523277 14:0.019575 15:-0.215204 16:0.0158484 17:0.292591 18:0.655464 19:-0.733569 20:-0.827201 21:-0.71021 22:-0.827201 23:-0.71021 24:-0.865869 25:-0.200098 26:-0.756726 27:-0.52721 28:-0.977174 29:-0.0220163 30:-0.363211 31:0.19275 32:-0.831036 33:-0.984752 34:-0.64355 
-0.03125 -0.03125 -0.03125 0.01555386095011054 0.03125 0.03125 0.03125 0.03125 0.03125 0.03125 0.03125 0.03125 0.03125 0.03125 0.03125 0.01561857225829921 0.01546380840561874 0.01554021490463936 0.03125 0.03125 0.03125 0.01561465913362643 0.01559279848083243 1:-0.3 2:0.288591 3:1 4:-0.768771 6:1 8:0.35378 9:0.360391 10:0.101169 11:-0.110405 12:-0.186964 13:0.0255714 14:-0.254042 15:-0.336197 16:-0.132386 17:0.436165 18:0.0454115 19:-0.21029 20:0.126919 21:-0.417404 22:0.126919 23:-0.417404 24:-0.509691 25:-0.999681 26:-0.441176 27:-0.768169 28:-0.99648 29:-0.154593 30:-0.910202 31:-0.951356 32:1 33:-0.970013 34:-0.88922 
-0.03125 -0.03125 -0.03125 0.01569613904988946 0.03125 0.03125 0.03125 0.03125 0.03125 0.03125 0.03125 0.03125 0.03125 0.03125 0.03125 0.01563142774170079 0.01578619159438126 0.01570978509536064 0.03125 0.03125 0.03125 0.01563534086637357 0.01565720151916757 1:-0.7 2:0.319911 3:1 4:-0.593453 6:0.326168 8:0.792539 9:0.468196 10:0.0358485 11:-0.184041 12:-0.229162 13:-0.179198 14:-0.158593 15:-0.0623869 16:0.301159 17:0.232753 18:0.0850931 19:-0.101715 20:0.0853031 21:-0.346603 22:0.0853031 23:-0.346603 24:-0.191492 25:-0.797916 26:-0.782996 27:-0.971002 28:-0.937309 29:-0.591111 30:-0.309912 31:0.504149 32:0.121851 33:-0.860595 34:-0.538661 
-0.03125 -0.03125 -0.03125 -0.03125 0.03125 0.03125 0.03125 0.03125 0.03125 0.03125 0.03125 0.03125 0.03125 0.03125 0.03125 0.03125 0.03125 0.03125 0.03125 0.03125 0.03125 0.03125 0.03125 1:-0.8 2:-0.199105 3:1 4:-0.951462 6:-0.41948 8:0.575075 9:0.26343 10:0.196959 11:-0.249421 12:-0.0374126 13:-0.075392 14:-0.0606066 15:-0.158651 16:0.141547 17:0.377478 18:0.414808 19:-0.891992 20:-0.940729 21:-0.887388 22:-0.940729 23:-0.887388 24:-0.721253 25:-0.972589 26:0.258349 27:-0.554358 28:-0.976705 29:-0.909819 30:0.444268 31:-0.999488 32:-0.998997 33:-0.726325 34:-0.587995 
-0.03125 -0.03125 -0.03125 -0.03125 -0.01549515518373533 0.03125 0.03125 0.03125 0.03125 0.03125 0.03125 0.03125 0.03125 0.03125 0.03125 0.0156041424526003 0.01549489652522959 0.01534818502620984 0.03125 0.03125 0.03125 0.015986364140909 0.01561689595135913 1:-0.8 2:-0.306488 3:1 4:-0.846162 6:-0.318941 8:0.309081 9:0.93568 10:0.143047 11:-0.768522 12:0.232958 13:-0.032512 14:0.662762 15:0.560614 16:1 17:1 18:-1 19:-0.502658 20:-0.371002 21:-0.568786 22:-0.371002 23:-0.568786 24:0.111171 25:-0.849583 26:-0.986203 27:0.0868557 28:-0.989032 29:-1 30:-0.961592 31:-0.967453 32:-1 33:-0.883005 34:-0.999878 
-0.03125 -0.03125 -0.03125 -0.03125 -0.01575484481626467 0.03125 0.03125 0.03125 0.03125 0.03125 0.03125 0.03125 0.03125 0.03125 0.03125 0.0156458575473997 0.01575510347477041 0.01590181497379016 0.03125 0.03125 0.03125 0.015263635859091 0.01563310404864087 1:-0.4 2:-0.812081 3:1 4:-0.772207 6:-0.376051 8:1 9:0.761175 10:-0.315371 11:-0.698902 12:-0.410939 13:-0.243081 14:0.255652 15:-0.0970306 16:-0.469104 17:0.114759 18:0.0587635 19:-0.811545 20:-0.820342 21:-0.857436 22:-0.820342 23:-0.857436 24:-0.346118 25:-0.98864 26:-0.848918 27:-0.566332 28:0.502685 29:-0.994495 30:-0.82045 31:0.0584171 32:-0.997092 33:-0.99177 34:-0.848529 
-0.03125 -0.02108812292873011 -0.01322080798356737 -0.01635583564857962 -0.006996365016832822 -0.01568379925771822 0.01492293549803093 0.03125 0.01054013577989039 0.03125 0.03125 0.02085805921384488 0.01409402936251967 0.0157639317003571 0.01558581897707147 0.00644882722396322 0.006206446678321457 0.00696061075400318 0.01402063374203766 0.03125 0.01300785573339762 0.007197238524664977 0.007171696371826272 1:-0.6 2:-0.00223714 3:1 4:-0.736075 6:-0.20657 8:0.319848 9:0.329372 10:0.396369 11:-0.304342 12:-0.0391431 13:-0.0208531 14:0.0731942 15:-0.830851 16:-0.300129 17:0.193899 18:-0.0387041 19:0.798554 20:0.94205 21:0.419152 22:0.94205 23:0.419152 24:-0.627768 25:-0.653762 26:-0.462316 27:-0.982969 28:-0.268554 29:-0.277074 30:-0.978346 31:-0.829501 32:-0.221208 33:-0.999905 34:-0.392644 
-0.03125 -0.02014145615062157 -0.0162242547535704 -0.01552195823514241 -0.007252993005194841 -0.01495544808656849 0.01410965879915395 0.03125 0.01100131148485774 0.03125 0.03125 0.02056491187434225 0.01407668602946354 0.01426201945347181 0.01388686182397789 0.00665584403671664 0.006134425195463785 0.006887981555974245 0.01350182696633761 0.03125 0.01250674202890269 0.006784605283658425 0.006749967192369155 1:-0.8 2:-0.0111857 3:1 4:-0.830787 6:-1 8:0.63536 9:0.482268 10:-0.14154 11:-0.160451 12:-0.113075 13:-0.080997 14:-0.0648674 15:-0.326428 16:0.119249 17:0.372398 18:0.540723 19:-0.852769 20:-0.959871 21:-0.832096 22:-0.959871 23:-0.832096 24:-0.99299 25:-0.150858 26:-0.995155 27:-0.876123 28:-0.553264 29:-0.994326 30:0.163162 31:1 32:-0.967769 33:-0.0464836 34:-0.805948 
-0.03125 -0.02320960892624137 -0.01656561690437174 -0.01572804176485759 -0.00771204484591607 -0.01556620074228178 0.01495901303751185 0.03125 0.01061698153672795 0.03125 0.03125 0.02224769675430911 0.01405076500702756 0.0154860682996429 0.01566418102292853 0.006338844949000791 0.00639730218631948 0.007111190680687031 0.01406792878695446 0.03125 0.01390900212565483 0.007026630560918221 0.00701061873565486 1:-0.5 2:-0.530201 3:1 4:-0.755971 6:-0.0548836 8:0.0707944 9:0.152914 10:0.0801105 11:-0.536234 12:-0.356764 13:0.270945 14:0.0467808 15:-0.786662 16:-0.361505 17:-0.0995969 18:0.155817 19:-0.618547 20:-0.600939 21:-0.763627 22:-0.600939 23:-0.763627 24:-0.942904 25:-0.871122 26:-0.229375 27:-0.967834 28:-0.897909 29:1 30:0.00726917 31:-0.298446 32:-0.619152 33:-0.972068 34:-0.651628 
-0.03125 -0.02931081199440695 -0.01648932035849048 -0.01489416435142038 -0.009288597132056268 -0.01629455191343152 0.01850839266530327 0.03125 0.03034157119852392 0.03125 0.03125 0.03007933215750375 0.02027851960098924 0.01698798054652819 0.01736313817602211 0.01180648379031935 0.01251182593989528 0.01029021700933555 0.02090961050467027 0.03125 0.02307640011204486 0.01024152563075838 0.01031771770014971 1:-0.7 2:-0.319911 3:1 4:-0.791878 6:-1 8:0.657819 9:0.243267 10:0.0628884 11:-0.152566 12:-0.116822 13:0.0347397 14:-0.0283447 15:-0.305453 16:0.12357 17:0.341071 18:0.420504 19:-0.892695 20:-0.881458 21:-0.932443 22:-0.881458 23:-0.932443 24:-0.776439 25:-0.216591 26:-0.782789 27:-0.59073 28:-0.449517 29:-0.988966 30:-0.920381 31:-0.936502 32:-0.329607 33:-0.529263 34:-0.995033 
-0.03125 -0.03125 -0.03125 -0.03125 -0.01584535282021506 -0.03125 -0.03125 0.03125 0.03125 0.03125 0.03125 0.03125 0.03125 0.03125 0.03125 0.01562963845600002 0.01522498354426454 0.01584088884096306 0.03125 0.03125 0.03125 0.01567186416149851 0.01577274560111316 1:-0.3 2:-0.910515 3:1 4:-0.59716 6:-0.125078 8:0.667609 9:0.278387 10:0.0861972 11:-0.254435 12:-0.133761 13:-0.0895404 14:-0.0920847 15:-0.34658 16:0.0801673 17:0.41121 18:-0.0696949 19:-0.418933 20:-0.390566 21:-0.4842 22:-0.390566 23:-0.4842 24:-0.806998 25:-0.379838 26:-0.904962 27:-0.959277 28:0.53797 29:-0.722235 30:-0.48079 31:-0.963297 32:-0.657171 33:-0.55533 34:-0.975864 
-0.03125 -0.03125 -0.03125 -0.03125 -0.01540464717978494 -0.03125 -0.03125 0.03125 0.03125 0.03125 0.03125 0.03125 0.03125 0.03125 0.03125 0.01562036154399998 0.01602501645573546 0.01540911115903694 0.03125 0.03125 0.03125 0.01557813583850149 0.01547725439888684 1:-0.9 2:-0.123043 3:0.51948 4:-0.876928 6:-1 8:0.251693 9:0.0419994 10:0.535005 11:-0.396328 12:1 13:-0.316706 14:0.121102 15:0.416011 16:0.14229 17:-0.10897 18:0.141862 19:-0.990027 20:-0.989391 21:-0.992854 22:-0.989391 23:-0.992854 24:1 25:-0.397439 26:-1 27:-1 28:-0.999158 29:-1 30:-1 31:-0.999878 32:-1 33:-1 34:-1 
-0.03125 -0.02101899121524376 -0.01801327774692761 -0.01388716661263366 -0.008296518672889759 -0.01389608300711316 -0.03125 -0.01335545084220125 0.01553361218033516 0.03125 0.03125 0.02530311467571617 0.01899363376227597 0.01273459311009072 0.01538277802384041 0.01184204114761712 0.006588094162754543 0.006593474336360528 0.0147720153603301 0.03125 0.01591681245587645 0.008011637152575182 0.005342076468479817 1:-0.7 2:0.208054 3:1 4:-0.809711 6:-0.32228 8:0.61666 9:0.377929 10:-0.0332571 11:-0.321012 12:-0.209585 13:-0.0604656 14:-0.154931 15:-0.24907 16:0.0653944 17:0.501599 18:0.776032 19:-0.870678 20:-0.865468 21:-0.901553 22:-0.865468 23:-0.901553 24:-0.936059 25:0.360863 26:-0.669853 27:-0.21652 28:-0.919953 29:-0.987029 30:-0.984236 31:-0.998708 32:-0.993899 33:-0.86761 34:-0.869528 
-0.03125 -0.02422321053914596 -0.01622748224129834 -0.01709076488516051 -0.00749361259655235 -0.01633025990323044 -0.03125 -0.01613588193729405 0.01487252746760127 0.03125 0.03125 0.02533011742050005 0.01083467248341871 0.01568974844706348 0.01572696253373026 0.00634170717904816 0.006989164841802195 0.008384482560028418 0.01672210592697612 0.03125 0.01470828725519283 0.007563789067039126 0.008512533097939187 1:-0.1 2:-0.373602 3:1 4:-0.678442 6:-0.0352974 8:0.885537 9:0.516257 10:0.354259 11:0.0421324 12:-0.829652 13:0.327291 14:-0.277077 15:-0.518025 16:-0.479592 17:0.23611 18:0.416866 19:-0.536791 20:-0.525524 21:-0.51694 22:-0.525524 23:-0.51694 24:-0.309118 25:-1 26:-0.931567 27:-0.222647 28:-0.995428 29:-1 30:-0.867506 31:-0.996113 32:-0.999946 33:0.11078 34:-1 
-0.03125 -0.02367806672723714 -0.01502251775870166 -0.01736283338736634 -0.007452384160517596 -0.01708476945563737 -0.03125 -0.01631964208423722 0.01007702694674485 0.03125 0.03125 0.02124806284879514 0.01225636623772403 0.01556025155293652 0.01675968689698239 0.006985445612162508 0.005268820167542185 0.006391656261529684 0.01280876040213256 0.03125 0.0142480373087161 0.007566266560049683 0.005010637131084574 1:-0.2 2:-0.208054 3:1 4:-0.573896 6:0.626042 8:-1 9:0.256611 10:-1 11:-1 12:-1 13:-1 14:-0.734578 15:1 16:-1 17:0.186608 18:-0.0403017 19:0.662593 20:0.78582 21:0.442566 22:0.78582 23:0.442566 24:0.628985 25:-0.0768628 26:-1 27:-0.932207 28:-1 29:-1 30:-1 31:-0.999903 32:-1 33:-0.94739 34:-1 
-0.03125 -0.02482973151837314 -0.01323672225307239 -0.01415923511483949 -0.008007484570040297 -0.01518888763401903 -0.03125 -0.01668902513626749 0.02201683340531873 0.03125 0.03125 0.02186870505498864 0.02041532751658129 0.01851540688990928 0.01463057254544694 0.00608080606117221 0.01240392082790108 0.009880386842081371 0.01819711831056123 0.03125 0.01762686298021462 0.008108307220336012 0.01238475330249642 1:-0.6 2:-0.807606 3:0.935065 4:-0.709635 6:-1 8:0.584211 9:0.359661 10:0.0264201 11:-0.246067 12:-0.160332 13:-0.184567 14:0.0144591 15:-0.128604 16:0.0625957 17:0.416364 18:0.613099 19:-0.945418 20:-0.938576 21:-0.969592 22:-0.938576 23:-0.969592 24:0.0734203 25:-0.203302 26:-0.958419 27:-0.45266 28:-0.999821 29:-0.974603 30:-0.867223 31:-0.899226 32:-0.945102 33:-0.888112 34:-0.981763 
-0.03125 -0.03125 -0.03125 -0.03125 -0.01403406988393332 -0.03125 -0.03125 -0.03125 -0.03125 0.03125 0.03125 0.03125 0.03125 0.03125 0.03125 0.01832011250863617 0.009759416845403691 0.01111315117798854 0.03125 0.03125 0.03125 0.0141032637255938 0.01305099623670647 1:-0.8 2:0.0111857 3:0.103895 4:-0.754162 6:-1 8:0.6663 9:0.259716 10:-0.0712434 11:-0.293336 12:0.00130015 13:-0.0940555 14:0.0601299 15:-0.380908 16:-0.136307 17:0.472591 18:0.630089 19:-0.606739 20:-0.428123 21:-0.734663 22:-0.428123 23:-0.734663 24:-0.685365 25:0.997722 26:-0.951893 27:-0.975713 28:-0.829072 29:-0.99993 30:-0.925871 31:-0.896862 32:-0.97974 33:-0.57343 34:-1 
-0.03125 -0.03125 -0.03125 -0.03125 -0.01721593011606668 -0.03125 -0.03125 -0.03125 -0.03125 0.03125 0.03125 0.03125 0.03125 0.03125 0.03125 0.01292988749136383 0.02149058315459631 0.02013684882201147 0.03125 0.03125 0.03125 0.0171467362744062 0.01819900376329353 1:-0.4 2:-0.355705 3:1 4:-0.702227 6:-1 8:0.624329 9:0.319045 10:0.102191 11:-0.215292 12:-0.0876335 13:-0.0574805 14:-0.120791 15:-0.228397 16:0.0679544 17:0.328124 18:0.143577 19:-0.777153 20:-0.713562 21:-0.843676 22:-0.713562 23:-0.843676 24:-0.256054 25:-0.705067 26:-0.776588 27:-0.760988 28:-0.717935 29:-0.988072 30:-0.901342 31:-0.821544 32:-0.807576 33:-0.139338 34:-0.841942 
-0.03125 -0.02392626726555449 -0.01704720020149018 -0.01567351660294264 -0.007588740262894927 -0.01515194108131689 -0.03125 -0.01542638095048822 -0.03125 -0.0228491750796294 0.03125 0.02258296725274564 0.02404771185574689 0.01530668647991518 0.0157879800130348 0.01634407150944996 0.007489427513843871 0.007648180689480689 0.0137514935461066 0.03125 0.01449514273488845 0.006554952600269843 0.006495091409419981 1:-0.7 2:0.225951 3:1 4:-0.818252 6:-0.39208 8:0.59586 9:0.278667 10:0.0157458 11:-0.206801 12:-0.116644 13:-0.0918838 14:-0.0344721 15:-0.208367 16:-0.0219205 17:0.291949 18:0.727862 19:-0.79325 20:-0.926507 21:-0.761169 22:-0.926507 23:-0.761169 24:-0.677465 25:1 26:-0.852955 27:-0.892626 28:-0.710856 29:-0.999935 30:-0.935932 31:-0.999671 32:-1 33:-0.866069 34:-0.976927 
-0.03125 -0.024210416262929 -0.01665131238345303 -0.01503674576470115 -0.009119823770746735 -0.01609805891868311 -0.03125 -0.01612811888673994 -0.03125 -0.01992765784978641 0.03125 0.02778898626156252 0.01363687126262591 0.0164442092210341 0.0154620199869652 0.005253532407884073 0.009603845678613956 0.008603648651932378 0.02135641330777022 0.03125 0.02033038383492931 0.01195056597771291 0.01224065816562947 1:-0.5 2:-0.440716 3:1 4:-0.828291 6:-0.381332 8:0.538222 9:0.194576 10:0.0583193 11:-0.283255 12:-0.0697112 13:0.0683433 14:-0.0335634 15:-0.178811 16:0.116047 17:0.297092 18:0.261578 19:-0.867829 20:-0.72805 21:-0.978385 22:-0.72805 23:-0.978385 24:-0.910195 25:-1 26:-0.964583 27:0.0696826 28:-0.831472 29:-1 30:-0.776199 31:-1 32:-1 33:0.376048 34:-1 
-0.03125 -0.0229316824187112 -0.01459868761654697 -0.01621325423529885 -0.007386907885811865 -0.01575429515982051 -0.03125 -0.01582361904951178 -0.03125 -0.009851499392737932 0.03125 0.02239038832186676 0.01223975124199935 0.01594331352008482 0.01465685477580432 0.004847512027047108 0.007100636092446618 0.007694912380228176 0.01452765596716815 0.03125 0.01367536581941816 0.006420920702223804 0.006428823774368846 1:-0.1 2:-0.865772 3:0.974026 4:-0.491801 6:0.0203783 8:0.798195 9:0.133218 10:0.293985 11:-0.306694 12:-0.0743844 13:-0.324474 14:0.170812 15:-0.529586 16:0.358114 17:0.570505 18:-0.119245 19:0.188549 20:0.520102 21:-0.309759 22:0.520102 23:-0.309759 24:-0.309392 25:-0.939678 26:-0.173033 27:-0.312766 28:-0.888549 29:-0.999825 30:-0.252442 31:-0.825065 32:-0.985013 33:-0.909475 34:-0.994607 
-0.03125 -0.02268163405280532 -0.01420279979850982 -0.01557648339705737 -0.007154528080546473 -0.01549570484017949 -0.03125 -0.01512188111326006 -0.03125 -0.009871667677846262 0.03125 0.02098765816382508 0.01257566563962785 0.0148057907789659 0.01659314522419568 0.004804884055618861 0.007056090715095556 0.007303258278358757 0.01286443717895504 0.03125 0.01399910761076409 0.006323560719793443 0.006085426650581698 1:-0.1 2:-0.315436 3:1 4:-0.461539 6:0.0641914 8:0.503325 9:0.109957 10:-0.317148 11:-0.126122 12:-0.201377 13:-0.231106 14:-0.353103 15:-0.246867 16:-0.354052 17:0.230963 18:0.407538 19:-0.204694 20:0.19949 21:-0.462864 22:0.19949 23:-0.462864 24:-0.843053 25:-0.0420694 26:-0.577919 27:-0.865187 28:-0.667607 29:-0.98129 30:-0.888736 31:-0.941181 32:-0.999261 33:-0.741512 34:1 
-0.03125 -0.01672279478125747 -0.01173503322411216 -0.01202176837398287 -0.00529193012816196 -0.01202041232304693 -0.02391513024597779 -0.01216416866632374 -0.02211610003361846 -0.01073975726375354 -0.02075965465911438 0.01586815508938795 0.01096205707552616 0.01278489069929082 0.01176152123957184 0.005049505022452996 0.005092239687908003 0.006073164656336341 0.01270726081697002 0.02211778058365644 0.0113903688563412 0.005671295240277882 0.005339224357536334 1:1 2:-1 3:-0.181818 4:1 6:0.554685 8:0.631355 9:0.157784 10:-0.137071 11:-0.115265 12:-0.221145 13:-0.0611462 14:0.100797 15:0.0243625 16:0.183103 17:0.144419 18:-0.117613 19:-0.326585 20:0.131993 21:-0.609457 22:0.131993 23:-0.609457 24:-0.0477512 25:-0.509617 26:-0.877384 27:-0.423801 28:-0.992007 29:-0.999551 30:-0.938783 31:-0.757217 32:-0.99998 33:-0.563429 34:-0.96851 
-0.03125 -0.018472225115338 -0.01451780758168148 -0.01133235614610212 -0.007054051984482031 -0.01283412399363653 -0.02803671319509927 -0.01258628738439413 -0.03125 -0.01587027198831829 -0.03125 0.01909774273768567 0.0193186379992252 0.01202842713795132 0.0148131837569472 0.0111324855453196 0.006934073934168917 0.005897516499834386 0.01178049035416707 0.02658209826343653 0.01377798512724251 0.006694648217887104 0.006343647558034539 1:-0.8 2:0.252796 3:1 4:-0.808999 6:-0.211803 8:0.484004 9:0.387164 10:0.273909 11:0.0251357 12:-0.451771 13:0.125902 14:-0.154866 15:-0.00622087 16:-0.125366 17:-0.0390529 18:0.66967 19:-0.778947 20:-0.972171 21:-0.715708 22:-0.972171 23:-0.715708 24:-0.98932 25:0.751338 26:-0.230817 27:-0.936588 28:-0.80729 29:-0.998717 30:-0.999717 31:-1 32:-1 33:-0.986376 34:-0.469687 
-0.03125 -0.02172932656740173 -0.01235890818325895 -0.01581437620590429 -0.006380071048000771 -0.01187377561598046 -0.02555750747017363 -0.01225805053844169 -0.02162456512329714 -0.0102662874785087 -0.02062714246155986 0.01760137043264742 0.01037018781169809 0.01140277961071619 0.0126359458238818 0.00460732515650814 0.005910917502302658 0.006835582794282765 0.01149351384998095 0.0225610816034827 0.0122315094868137 0.005349608234726007 0.005093976378473401 1:-0.2 2:-0.310962 3:1 4:-0.536371 6:0.110778 8:0.73239 9:0.394606 10:0.250298 11:-0.204645 12:0.126937 13:0.017312 14:-0.212232 15:0.0176684 16:0.377599 17:0.36713 18:-0.109979 19:-0.486115 20:-0.104092 21:-0.748321 22:-0.104092 23:-0.748321 24:-0.787084 25:-0.890073 26:-0.0247036 27:-0.850759 28:-0.997803 29:0.349807 30:-0.626339 31:-0.991275 32:-0.110436 33:-0.946422 34:-0.874303 
-0.03125 -0.02003038763300121 -0.01169773382987295 -0.01188486682264924 -0.007131246959455221 -0.01292271256834106 -0.02351907512344296 -0.013306369414451 -0.02638498144173163 -0.01444956068575254 -0.03125 0.02513354231662249 0.01065795239671345 0.01424833981631968 0.01135027655063466 0.004695673866536898 0.007780597503249659 0.007117780880124186 0.0143106010359587 0.03125 0.01289078458110508 0.005785186237277247 0.00683145673436095 1:-0.6 2:-0.50783 3:1 4:-0.805735 6:-0.0687519 8:0.695609 9:0.227512 10:0.122171 11:-0.243054 12:-0.173957 13:-0.0198957 14:-0.0241823 15:-0.153851 16:0.165039 17:0.343399 18:-0.0966674 19:-0.170298 20:-0.0224044 21:-0.260751 22:-0.0224044 23:-0.260751 24:-0.186677 25:-1 26:-0.232676 27:-0.720102 28:-1 29:-1 30:-0.337174 31:-1 32:-1 33:-0.265876 34:-1 
-0.03125 -0.01679526590300159 -0.01219051718107446 -0.01144663245136149 -0.005392699879900017 -0.01284897549899502 -0.02397157396530635 -0.01218512399638944 -0.02362435340135279 -0.01117412258366694 -0.02111320287932576 0.01604918942365646 0.01119116471683712 0.01203556273572199 0.0119390726289645 0.005765010409182371 0.005532171372370763 0.005325955169422321 0.01220813394292325 0.02248903954942433 0.01220935194849751 0.007749262069831761 0.007641694971594777 1:-0.5 2:-0.941834 3:1 4:-0.576851 6:-0.404774 8:0.458414 9:-0.793588 10:-0.0176076 11:1 12:0.700173 13:-0.191378 14:0.869328 15:-0.427607 16:-0.028471 17:0.221752 18:0.628011 19:-0.914768 20:-0.910978 21:-0.938271 22:-0.910978 23:-0.938271 24:-0.8939 25:-0.765104 26:-0.933127 27:1 28:-1 29:-1 30:-1 31:-0.878645 32:-0.999295 33:-0.965132 34:-1 
-0.03125 -0.03125 -0.02359834343480467 -0.02070830040551925 -0.010517742188707 -0.02017809206166682 -0.03125 -0.0208953332939101 -0.03125 -0.02082104396459565 -0.03125 -0.03125 0.01970941130160574 0.02178833214739442 0.02017537940809439 0.00939573568534316 0.01364121898954291 0.01138765365575911 0.02278458652006091 0.03125 0.01760691559234449 0.01016836836992072 0.01152629458772838 1:-0.7 2:0.234899 3:1 4:-0.83148 6:-0.0751366 8:0.714056 9:0.234145 10:0.0717394 11:-0.231209 12:-0.11481 13:0.0322364 14:0.104481 15:-0.257841 16:0.0221051 17:0.245145 18:0.56184 19:-0.488038 20:-0.3155 21:-0.735626 22:-0.3155 23:-0.735626 24:-0.555199 25:-0.797771 26:-0.334031 27:-0.255462 28:-0.658379 29:-0.979254 30:-0.479235 31:-0.999452 32:-0.999953 33:-0.847905 34:-0.709301 
-0.03125 -0.03125 -0.01942867178508483 -0.0200800098967272 -0.007622711046144448 -0.0208323633147951 -0.03125 -0.02042477165324566 -0.03125 -0.02430381146490922 -0.03125 -0.03125 0.02153292609487405 0.02086251911859423 0.02038503160493112 0.0107877704462889 0.01208809387693697 0.01170785980121285 0.02205571127950271 0.03125 0.03125 0.01209966584961632 0.01034006371185066 1:-0.9 2:0.266219 3:1 4:-0.915136 6:-1 8:0.708665 9:0.0942569 10:-0.023645 11:-0.262218 12:-0.18993 13:-0.119547 14:-0.31741 15:-0.356941 16:0.0916595 17:0.221269 18:-0.431181 19:-0.870463 20:-0.850708 21:-0.889973 22:-0.850708 23:-0.889973 24:-0.379595 25:-0.976208 26:0.058751 27:-0.433802 28:-0.995193 29:-1 30:-0.987465 31:-0.998903 32:-0.993425 33:-0.671342 34:-0.998214 
-0.03125 -0.03125 -0.01947298478011051 -0.02171168969775355 -0.01310954676514856 -0.02148954462353808 -0.03125 -0.02117989505284424 -0.03125 -0.01737514457049512 -0.03125 -0.03125 0.02125766260352021 0.01984914873401135 0.0219395889869745 0.01106649386836794 0.005520687133520118 0.008154486543028042 0.01765970220043638 0.03125 0.01364308440765551 0.008981965780462968 0.009383641700420959 1:-0.5 2:-0.364653 3:0.116883 4:-0.699486 6:0.299962 8:0.55696 9:0.311509 10:-0.0693857 11:-0.0946136 12:-0.199039 13:0.132461 14:-0.111276 15:-0.404728 16:0.0255808 17:0.470966 18:0.0196221 19:-0.956852 20:-0.939115 21:-0.983275 22:-0.939115 23:-0.983275 24:-0.475703 25:-1 26:0.368508 27:-0.681684 28:-0.999984 29:-0.999012 30:1 31:-0.81957 32:-0.967491 33:-0.92527 34:-0.864666 
-0.03125 -0.03125 -0.03125 -0.03125 -0.01547632168399513 -0.03125 -0.03125 -0.03125 -0.03125 -0.03125 -0.03125 -0.03125 -0.03125 0.03125 0.03125 0.01792782559800178 0.01295778756094406 0.01482525648787379 0.03125 0.03125 0.03125 0.01472575617386085 0.01378487953735254 1:-0.6 2:-0.35123 3:1 4:-0.745083 6:-0.144777 8:0.843037 9:0.412891 10:-0.0789662 11:-0.0760214 12:-0.147142 13:-0.433923 14:-0.133796 15:-0.349766 16:-0.0628685 17:0.702006 18:-0.093098 19:-0.881911 20:-0.943496 21:-0.889593 22:-0.943496 23:-0.889593 24:-0.98644 25:0.93909 26:-0.74499 27:-0.728206 28:-0.943145 29:-0.84223 30:-0.978086 31:-0.899604 32:-0.998875 33:-0.852963 34:-0.532831 
-0.03125 -0.03125 -0.03125 -0.03125 -0.01577367831600487 -0.03125 -0.03125 -0.03125 -0.03125 -0.03125 -0.03125 -0.03125 -0.03125 0.03125 0.03125 0.01332217440199822 0.01829221243905594 0.01642474351212622 0.03125 0.03125 0.03125 0.01652424382613915 0.01746512046264746 1:-0.9 2:-0.378076 3:1 4:-1 6:-1 8:0.586726 9:0.300543 10:0.0185534 11:-0.606525 12:-0.0556756 13:0.077531 14:-0.0290556 15:-0.0721449 16:0.198229 17:0.425674 18:0.432759 19:-0.993425 20:-0.990544 21:-0.996579 22:-0.990544 23:-0.996579 24:0.727123 25:-1 26:-0.997806 27:-0.457446 28:-0.999821 29:-1 30:-0.860837 31:-0.125059 32:-0.999953 33:-1 34:-1 
-0.03125 -0.03125 -0.03125 -0.03125 -0.01534947510047511 -0.03125 -0.03125 -0.03125 -0.03125 -0.03125 -0.03125 -0.03125 -0.03125 -0.03125 0.03125 0.01549623135928354 0.008043065410854002 0.01335571310656451 0.03125 0.03125 0.03125 0.01413996656676163 0.0129407598857837 2:-0.440716 3:1 4:-0.509121 6:0.00272831 8:0.571402 9:0.309746 10:-0.0128448 11:-0.18845 12:-0.0347862 13:-0.0297799 14:-0.177084 15:-0.568679 16:-0.29551 17:0.497699 18:0.147052 19:-0.106915 20:-0.103246 21:-0.315663 22:-0.103246 23:-0.315663 24:-0.784189 25:-0.99801 26:-0.68243 27:-0.887744 28:1 29:-0.999985 30:0.806218 31:-0.904868 32:-0.477111 33:-0.877574 34:-0.65466 
-0.03125 -0.03125 -0.03125 -0.03125 -0.01590052489952489 -0.03125 -0.03125 -0.03125 -0.03125 -0.03125 -0.03125 -0.03125 -0.03125 -0.03125 0.03125 0.01575376864071646 0.023206934589146 0.01789428689343549 0.03125 0.03125 0.03125 0.01711003343323837 0.0183092401142163 1:-0.9 2:0.10962 3:1 4:-0.90912 6:-1 8:0.620297 9:0.144103 10:0.173819 11:-0.335101 12:-0.143981 13:-0.0868837 14:-0.147036 15:-0.241406 16:0.177657 17:0.300135 18:0.392606 19:-0.555085 20:-0.328722 21:-0.787041 22:-0.328722 23:-0.787041 24:0.666673 25:-1 26:-1 27:-0.239181 28:-1 29:-1 30:-1 31:-1 32:-1 33:-0.963346 34:-1 
-0.03125 -0.03125 -0.03125 -0.03125 -0.01603553412328611 -0.03125 -0.03125 -0.03125 -0.03125 -0.03125 -0.03125 -0.03125 -0.03125 -0.03125 -0.03125 0.01584670148935742 0.01637529025185209 0.01627071326754889 0.03125 0.03125 0.03125 0.01588988446442768 0.01597941046826237 1:-0.3 2:-0.955257 3:1 4:-0.593215 6:-0.316482 8:0.581759 9:0.217769 10:-0.0146328 11:-0.155691 12:-0.0590049 13:-0.0247346 14:-0.0724671 15:-0.266326 16:0.167381 17:0.405196 18:-0.16732 19:-0.797565 20:-0.830412 21:-0.828447 22:-0.830412 23:-0.828447 24:-0.957469 25:-0.103747 26:-0.0725693 27:-0.975732 28:-0.328436 29:-0.915314 30:-0.968261 31:-0.9971 32:-0.998387 33:-0.994649 34:0.266355 
-0.03125 -0.03125 -0.03125 -0.03125 -0.01521446587671389 -0.03125 -0.03125 -0.03125 -0.03125 -0.03125 -0.03125 -0.03125 -0.03125 -0.03125 -0.03125 0.01540329851064258 0.01487470974814792 0.01497928673245112 0.03125 0.03125 0.03125 0.01536011553557232 0.01527058953173763 1:-0.4 2:-0.436242 3:1 4:-0.428942 6:-0.161627 8:0.81111 9:1 10:1 11:-0.303391 12:0.0233896 13:0.129541 14:-1 15:0.820793 16:0.582368 17:0.0652463 18:0.043794 19:-0.690457 20:-0.639069 21:-0.804171 22:-0.639069 23:-0.804171 24:-0.93687 25:-1 26:1 27:-0.55089 28:-0.983017 29:-0.902428 30:-0.890786 31:-0.999854 32:-0.984688 33:-0.987417 34:-0.95436 
-0.03125 -0.03125 -0.03125 -0.03125 -0.03125 -0.03125 -0.03125 -0.03125 -0.03125 -0.03125 -0.03125 -0.03125 -0.03125 -0.03125 -0.03125 -0.03125 0.03125 0.03125 0.03125 0.03125 0.03125 0.03125 0.03125 1:-0.9 2:0.315436 3:1 4:-0.89266 6:-1 8:0.714438 9:0.0313123 10:0.391087 11:-0.044263 12:0.129268 13:-0.132846 14:-0.259321 15:-0.358541 16:-0.161339 17:0.136094 18:0.536459 19:-0.949546 20:-0.995157 21:-0.930086 22:-0.995157 23:-0.930086 24:-0.99513 25:0.919105 26:-1 27:-0.99702 28:-0.859939 29:-1 30:-0.94114 31:-0.999951 32:-1 33:0.0257588 34:-1 
-0.03125 -0.03125 -0.03125 -0.03125 -0.03125 -0.03125 -0.03125 -0.03125 -0.03125 -0.03125 -0.03125 -0.03125 -0.03125 -0.03125 -0.03125 -0.03125 -0.03125 0.03125 0.03125 0.03125 0.03125 0.03125 0.03125 1:-0.4 2:0.100671 3:1 4:-0.770132 6:-1 8:0.599888 9:0.254019 10:0.0583859 11:-0.187376 12:-0.10723 13:-0.0713863 14:-0.0245101 15:-0.248984 16:0.0519034 17:0.355439 18:0.470377 19:-0.732998 20:-0.502922 21:-0.896891 22:-0.502922 23:-0.896891 24:0.0141175 25:-0.940842 26:-0.608011 27:-0.292685 28:-0.981468 29:-0.685459 30:-1 31:-0.999756 32:-0.98081 33:-0.999652 34:-0.475098 
-0.03125 -0.03125 -0.03125 -0.03125 -0.03125 -0.03125 -0.03125 -0.03125 -0.03125 -0.03125 -0.03125 -0.03125 -0.03125 -0.03125 -0.03125 -0.03125 -0.03125 -0.03125 0.03125 0.03125 0.03125 0.03125 0.03125 1:0.1 2:-0.0514541 3:1 4:0.0190161 6:-1 8:0.668449 9:0.330392 10:0.226925 11:-0.273879 12:-0.19233 13:0.0808862 14:-0.145798 15:-0.297957 16:-0.157799 17:0.448037 18:0.193924 19:-0.693214 20:-0.624232 21:-0.684185 22:-0.624232 23:-0.684185 24:-0.0351111 25:-0.999557 26:-0.152857 27:-0.535663 28:-0.904678 29:-0.817102 30:-0.91793 31:-0.994236 32:-0.990504 33:-0.999969 34:-0.693094 
-0.03125 -0.03125 -0.03125 -0.03125 -0.01444291939577071 -0.03125 -0.03125 -0.03125 -0.03125 -0.03125 -0.03125 -0.03125 -0.03125 -0.03125 -0.03125 -0.03125 -0.01526562950057335 -0.01145369937244421 -0.01705844115607828 0.03125 0.03125 0.0115025117782913 0.01719408375469057 1:-0.1 2:-0.928412 3:1 4:0.0175042 6:0.0949469 8:0.518356 9:0.0822531 10:0.260444 11:-0.330652 12:-0.0536122 13:-0.00603598 14:-0.603899 15:-0.274265 16:0.135942 17:0.425864 18:0.103858 19:-0.496224 20:-0.720096 21:-0.467957 22:-0.720096 23:-0.467957 24:-0.177431 25:-1 26:-0.443019 27:0.0631571 28:-0.939033 29:-1 30:-0.961498 31:-1 32:-1 33:-0.998907 34:-0.999974 
-0.03125 -0.03125 -0.03125 -0.03125 -0.01680708060422929 -0.03125 -0.03125 -0.03125 -0.03125 -0.03125 -0.03125 -0.03125 -0.03125 -0.03125 -0.03125 -0.03125 -0.01598437049942665 -0.01979630062755579 -0.01419155884392172 0.03125 0.03125 0.0197474882217087 0.01405591624530943 1:-0.7 2:0.324385 3:1 4:-0.885393 6:-1 8:0.634563 9:0.26505 10:-0.019185 11:-0.228268 12:-0.150159 13:-0.0999912 14:-0.0389799 15:-0.279189 16:-0.0108916 17:0.368113 18:0.49564 19:-0.969881 20:-0.976707 21:-0.978106 22:-0.976707 23:-0.978106 24:-0.340934 25:-1 26:-0.941977 27:0.425256 28:-0.892097 29:-1 30:-0.540664 31:-0.996564 32:-1 33:-0.782952 34:-1 
-0.03125 -0.02829697212009767 -0.01534924145314453 -0.01593739585102498 -0.006377085169457759 -0.01658904775448585 -0.03125 -0.01738439289254715 -0.03125 -0.01771205070126443 -0.03125 -0.03125 -0.02781320124825807 -0.01657173617326419 -0.02230000772179901 -0.01532340324331981 -0.006487577827947028 -0.01306136946794567 -0.01168474505024719 -0.0200876408900938 0.01106299960806055 0.006160060115490014 0.01249195094527723 1:-0.5 2:-0.440716 3:1 4:-0.603359 6:-0.0715682 8:0.63171 9:0.347209 10:0.0152659 11:-0.221876 12:-0.13003 13:-0.128141 14:-0.0813567 15:-0.243175 16:0.159383 17:0.38307 18:0.227272 19:-0.424129 20:-0.288132 21:-0.610065 22:-0.288132 23:-0.610065 24:0.20103 25:-0.655331 26:-0.61892 27:-0.516236 28:-0.94001 29:-0.976923 30:-0.972196 31:-0.963773 32:-0.989039 33:-0.895961 34:-0.989509 
-0.03125 -0.02160591152692618 -0.01449997830435632 -0.01641724940601496 -0.006057913115538478 -0.01586153604626821 -0.03125 -0.01549770877713051 -0.03125 -0.01237107239940413 -0.03125 -0.03125 -0.01700319178805064 -0.01425223170309582 -0.0136657909259295 -0.0159265967566802 -0.007922669892077298 -0.004703016859377879 -0.005574849150210706 -0.01136807013661975 0.01064998921957593 0.005964969194515548 0.004780756520950968 1:0.7 2:-0.248322 3:1 4:0.514517 6:0.209227 8:-0.690007 9:-1 10:-0.765453 11:0.768076 12:0.552768 13:1 14:1 15:-1 16:-0.139336 17:-1 18:0.0129947 19:-0.461846 20:-0.61347 21:-0.47039 22:-0.61347 23:-0.47039 24:-0.456694 25:-1 26:0.63898 27:-0.664729 28:-0.994073 29:-1 30:-0.997243 31:-0.998428 32:-1 33:-0.984276 34:-0.804615 
-0.03125 -0.02254558035579098 -0.01832585095625018 -0.01360892641516972 -0.01275612210373112 -0.0142679986602781 -0.03125 -0.01411206088273917 -0.03125 -0.02063098619572269 -0.03125 -0.03125 -0.03125 -0.01699776829690418 -0.0126378439173159 -0.01603038263210994 -0.008983790859172983 -0.009233330745752152 -0.008482845585656734 -0.01988192986338025 0.03013996517452344 0.01266921651595438 0.009270606554323624 1:-0.8 2:0.0246085 3:1 4:-0.86329 6:-0.328878 8:0.647339 9:0.288625 10:0.210109 11:-0.152266 12:-0.260025 13:-0.116529 14:-0.0361138 15:-0.321308 16:-0.211258 17:0.364084 18:0.200634 19:-0.924579 20:-0.959369 21:-0.917974 22:-0.959369 23:-0.917974 24:-0.718171 25:-0.708283 26:-0.184649 27:-0.307027 28:-0.980407 29:-1 30:-0.988383 31:-0.996064 32:-0.996428 33:-0.415718 34:-0.99912 
-0.03125 -0.02130153599718517 -0.01432492928624897 -0.01653642832779034 -0.006058879611272642 -0.01578141753896785 -0.03125 -0.01550583744758318 -0.03125 -0.01178589070360875 -0.03125 -0.03125 -0.01768360696369129 -0.01467826382673581 -0.01389635743495559 -0.01521961736789006 -0.007855961420802691 -0.004252282926924297 -0.005507560213885368 -0.0111623591099062 0.01064704599784008 0.006455754174040061 0.004706685979448179 1:0.1 2:-0.642058 3:1 4:-0.327186 6:-0.108714 8:0.480563 9:0.126277 10:0.586622 11:-0.140803 12:-0.0962384 13:-0.0342198 14:-0.00323523 15:-0.188998 16:0.0633692 17:0.0782976 18:0.0507386 19:1 20:1 21:1 22:1 23:1 24:-0.405022 25:-0.79293 26:-0.792705 27:-0.116844 28:-0.975755 29:-0.998453 30:0.744719 31:-0.926546 32:-0.607601 33:-0.690156 34:-0.991836 
-0.03125 -0.03125 -0.03125 -0.03125 -0.01485411369330563 -0.03125 -0.03125 -0.03125 -0.03125 -0.03125 -0.03125 -0.03125 -0.03125 -0.03125 -0.03125 -0.03125 -0.01594049405308441 -0.01925132678466187 -0.01714250618677125 -0.03125 -0.03125 0.01904820200853223 0.01714432586597607 1:-1 2:0.0738255 3:1 4:-0.938703 6:-1 8:0.561029 9:0.276964 10:-0.0806744 11:0.0625371 12:-0.0648678 13:-0.0542439 14:0.0370953 15:-0.0916067 16:0.0649244 17:0.343022 18:-0.0940896 19:-0.905349 20:-0.780674 21:-0.979348 22:-0.780674 23:-0.979348 24:-0.636086 25:-0.931874 26:-0.0635934 27:-0.0364228 28:-0.971151 29:-1 30:-0.972196 31:-0.954999 32:-0.994876 33:-0.796961 34:-0.9998 
-0.03125 -0.03125 -0.03125 -0.03125 -0.01639588630669437 -0.03125 -0.03125 -0.03125 -0.03125 -0.03125 -0.03125 -0.03125 -0.03125 -0.03125 -0.03125 -0.03125 -0.01530950594691559 -0.01199867321533813 -0.01410749381322875 -0.03125 -0.03125 0.01220179799146777 0.01410567413402393 1:-0.9 2:-0.758389 3:0.597403 4:-0.910897 6:-0.412578 8:0.594431 9:0.297807 10:0.106161 11:-0.232842 12:-0.10917 13:-0.0635203 14:-0.0195302 15:-0.292211 16:0.150655 17:0.388111 18:0.0835412 19:-0.916229 20:-0.965098 21:-0.894433 22:-0.965098 23:-0.894433 24:-0.575357 25:-1 26:-0.0914797 27:-0.941157 28:-0.809281 29:-0.588076 30:-0.623888 31:-1 32:-0.85497 33:-0.561552 34:0.327487 
-0.03125 -0.03125 -0.03125 -0.03125 -0.03125 -0.03125 -0.03125 -0.03125 -0.03125 -0.03125 -0.03125 -0.03125 -0.03125 -0.03125 -0.03125 -0.03125 -0.03125 -0.03125 -0.03125 -0.03125 -0.03125 -0.03125 0.03125 1:-0.9 2:-0.136465 3:1 4:-0.906378 6:-0.213793 8:0.370682 9:0.0749307 10:0.209684 11:-0.457886 12:-0.0937702 13:-0.0210223 14:0.207504 15:-0.505964 16:0.253803 17:0.369855 18:-0.244262 19:-1 20:-1 21:-1 22:-1 23:-1 24:-0.458108 25:-0.976186 26:-0.987573 27:0.644636 28:-0.724359 29:-1 30:-0.999835 31:-1 32:-1 33:-0.958349 34:-1 
-0.03125 -0.03125 -0.03125 -0.03125 -0.03125 -0.03125 -0.03125 -0.03125 -0.03125 -0.03125 -0.03125 -0.03125 -0.03125 -0.03125 -0.03125 -0.03125 -0.03125 -0.03125 -0.03125 -0.03125 -0.03125 -0.03125 -0.03125 1:-0.7 2:-0.856823 3:0.974026 4:-0.787644 6:-0.0565158 8:0.534955 9:0.200969 10:0.270299 11:-0.117021 12:-0.264119 13:-0.160299 14:-0.0939284 15:-0.247148 16:0.139526 17:0.363653 18:0.298833 19:-0.801428 20:-0.883687 21:-0.780681 22:-0.883687 23:-0.780681 24:-0.0209724 25:-1 26:-1 27:0.370706 28:-1 29:-1 30:-1 31:-1 32:-1 33:-0.896138 34:-1 
