svm_type c_svc
kernel_type rbf
gamma 0.125
nr_class 7
total_sv 84
rho -0.00334536 0.0938663 -0.513831 -0.364754 -0.262411 -0.252207 0.243305 -0.68265 -0.495819 0.164091 0.0405824 -0.674092 -0.407173 -0.0426754 -0.181827 0.372826 0.511381 0.570668 0.119983 0.10924 0.186433
label 1 2 3 4 5 6 7
nr_sv 12 12 12 12 12 12 12
SV
0.2853718019411435 0.6929459053717523 0.1536765278840589 0.4405197718475183 0.3584828119870841 1.111441561205241 1:-0.90625 2:0.562363 3:1 4:-0.874955 5:-0.303183 6:-0.119944 7:-1 8:-0.915148 9:-0.849306 10:-0.314489 11:-0.897728 12:-0.921254 13:-0.976892 14:0.658531 15:-0.863231 16:-0.957973 17:-0.960377 18:0.087984 19:0.20832 20:-0.0230483 21:0.0348103 22:-0.0230483 23:0.0348103 24:-0.686479 25:-0.995665 26:-0.711423 27:-0.960774 28:1 29:-0.996157 30:-0.940617 31:-0.99769 32:-0.935824 33:-0.96849 34:-0.809482 
0.8963048082618079 1.056966892579909 0.3660539454632936 0.888162258799887 1.028103598704882 2 1:-0.3125 2:-0.330416 3:1 4:-0.341019 5:-0.306533 6:1 7:1 8:-0.91399 9:-0.892344 10:-0.236712 11:-0.917026 12:-0.917679 13:-0.977762 14:0.695979 15:-0.79455 16:-0.93614 17:-0.954975 18:0.493594 19:0.451419 20:1 21:0.36539 22:1 23:0.36539 24:-0.679899 25:-0.926681 26:-0.794146 27:-0.630201 28:-0.929242 29:-0.780689 30:-0.681707 31:-0.992165 32:-0.413723 33:-0.302279 34:-0.816714 
2 2 2 2 2 2 1:-0.90625 2:0.422319 3:1 4:-0.865503 5:-0.152429 6:-0.413301 7:1 8:-0.909751 9:-0.886299 10:-0.161011 11:-0.920656 12:-0.912081 13:-0.97571 14:0.688733 15:-0.79668 16:-0.929942 17:-0.955658 18:0.865246 19:-0.672606 20:-0.760124 21:-0.511181 22:-0.760124 23:-0.511181 24:-0.841183 25:-1 26:0.482834 27:-0.379849 28:-0.993892 29:-0.98076 30:-0.866959 31:-0.999545 32:-0.991992 33:-0.89344 34:-0.973676 
2 2 1.046799406491178 1.910400982633243 1.223347825071636 2 1:-0.8125 2:0.501094 3:1 4:-0.891284 5:-0.701843 6:-0.299123 7:-0.30954 8:-0.920342 9:-0.888068 10:-0.36797 11:-0.907105 12:-0.905943 13:-0.975423 14:0.696128 15:-0.814361 16:-0.929755 17:-0.951767 18:-0.253559 19:-0.614616 20:-0.604707 21:-0.674553 22:-0.604707 23:-0.674553 24:-0.706204 25:-0.861338 26:-0.784537 27:0.792848 28:-0.847371 29:-1 30:-0.976268 31:-0.996931 32:-0.984804 33:-0.904202 34:-1 
2 0.9824592612763015 2 2 0 2 1:-0.9375 2:0.728665 3:1 4:-0.930373 5:-1 6:-1 7:-1 8:-0.918134 9:-0.898321 10:-0.24839 11:-0.93176 12:-0.917002 13:-0.977921 14:0.699651 15:-0.79707 16:-0.921633 17:-0.9495 18:0.778435 19:-0.638147 20:-0.578187 21:-0.751785 22:-0.578187 23:-0.751785 24:-0.86694 25:-0.951937 26:0.0322882 27:-0.760613 28:-0.974976 29:-0.449612 30:-0.778654 31:-0.98111 32:-0.46789 33:-0.840753 34:-0.964425 
1.970298898011774 0.998830686286748 1.285554651181415 2 0.791994817226617 0.8146357433208527 1:-0.59375 2:-0.0284464 3:-0.0726254 4:-0.534548 5:-0.041876 6:0.855178 7:-1 8:-0.915517 9:-0.906677 10:-0.270407 11:-0.911658 12:-0.912904 13:-0.975312 14:0.71452 15:-0.790165 16:-0.948221 17:-0.957759 18:-0.303453 19:-0.389501 20:-0.152312 21:-0.690719 22:-0.152312 23:-0.690719 24:-0.959422 25:-0.776411 26:-0.959802 27:-0.830016 28:-0.449296 29:-0.999439 30:-0.81461 31:-0.998687 32:-0.998282 33:0.36232 34:-0.831369 
1.024204629997626 2 1.345540409336375 0.590310526861468 1.402771510541528 1.893983295207888 1:-0.875 2:-0.387309 3:0.955307 4:-0.847845 5:0.142379 6:0.0354752 7:-1 8:-0.913874 9:-0.89759 10:-0.247431 11:-0.896723 12:-0.914521 13:-0.980316 14:0.732458 15:-0.791274 16:-0.952004 17:-0.960802 18:-0.975981 19:-0.730825 20:-0.728945 21:-0.767243 22:-0.728945 23:-0.767243 24:-0.0981062 25:-0.796484 26:-0.681877 27:-0.198421 28:-0.971629 29:-1 30:-0.984371 31:-0.874085 32:-0.991498 33:-0.898814 34:-1 
2 2 2 2 0.4608223646011548 0.7207366205176421 1:-0.71875 2:-0.343545 3:0.96648 4:-0.735419 5:-0.21943 6:-0.223557 7:-1 8:-0.908218 9:-0.916532 10:-0.404905 11:-0.95421 12:-0.918209 13:-0.977031 14:0.657461 15:-0.814283 16:-0.93557 17:-0.949778 18:0.179541 19:-0.756668 20:-0.645443 21:-0.887722 22:-0.645443 23:-0.887722 24:-0.28829 25:-1 26:-0.449027 27:-0.867667 28:-0.992432 29:-0.112029 30:-0.909932 31:-0.985532 32:-0.607903 33:-0.997845 34:-0.932289 
0.3318669944976687 0 0 0.1329674204009903 0.2986560397729837 0.4185587790693817 1:-0.90625 2:0.763676 3:1 4:-0.859551 5:-0.919598 6:-0.0940383 7:-1 8:-0.913262 9:-0.897837 10:-0.318796 11:-0.923286 12:-0.916102 13:-0.977158 14:0.684906 15:-0.7877 16:-0.94161 17:-0.95389 18:0.456867 19:0.763239 20:0.797347 21:0.470706 22:0.797347 23:0.470706 24:-0.719727 25:-0.97181 26:-0.785478 27:0.920138 28:-0.857443 29:-0.999121 30:-0.990914 31:-0.997987 32:-0.995005 33:-0.880833 34:-0.975834 
1.238191845156605 0.6485869754152713 0.3940387839488242 0.9250964338773002 0 1.273944574216817 1:-0.8125 2:0.40919 3:1 4:-0.973324 5:0.829146 6:-0.0229498 7:-1 8:-0.902751 9:-0.876208 10:-0.185406 11:-0.908916 12:-0.889926 13:-0.977695 14:0.743518 15:-0.7818 16:-0.908159 17:-0.942117 18:-0.0285129 19:-0.575029 20:-0.667304 21:-0.607882 22:-0.667304 23:-0.607882 24:-0.820246 25:-0.9996 26:-0.0712555 27:-0.544758 28:-0.60857 29:-0.929295 30:-0.102046 31:-0.969275 32:-0.984315 33:-0.958545 34:-0.879381 
0.0488346208355017 1.328133744430314 2 0.04980047404299003 0 0 1:-0.9375 2:0.0634573 3:1 4:-0.923482 5:-0.19598 6:-0.337151 7:-1 8:-0.910906 9:-0.905882 10:-0.100398 11:-0.919516 12:-0.930072 13:-0.977085 14:0.688427 15:-0.790767 16:-0.944315 17:-0.947475 18:0.0801605 19:-0.844913 20:-0.888066 21:-0.840345 22:-0.888066 23:-0.840345 24:-0.819753 25:-1 26:1 27:-0.944448 28:-0.992708 29:-0.977211 30:-0.884955 31:-1 32:-0.997985 33:-0.985838 34:-0.942008 
1.63189582205287 2 1.604749338758719 2 1.249776708698258 2 1:-0.90625 2:0.501094 3:1 4:-0.941964 5:-1 6:-1 7:0.897366 8:-0.929308 9:-0.846213 10:-0.0980454 11:-0.888801 12:-0.897632 13:-0.977442 14:0.664808 15:-0.766521 16:-0.905805 17:-0.918683 18:0.174521 19:-0.457573 20:-0.534823 21:-0.289221 22:-0.534823 23:-0.289221 24:-0.788648 25:0.924176 26:-0.954182 27:-0.791841 28:-0.951412 29:-1 30:-0.994949 31:-0.994872 32:-0.999693 33:-0.951681 34:-1 
-1.834758782853005 1.294696033447132 0.9961259752573611 2 1.423705038896769 1.300895203221886 1:0.09375 2:-0.308534 3:-1 4:-0.247767 5:-0.159129 6:-0.331148 7:-0.105573 8:-0.913635 9:-0.89699 10:-0.251429 11:-0.920031 12:-0.917266 13:-0.97762 14:0.700497 15:-0.795942 16:-0.937293 17:-0.950287 18:-0.188565 19:-0.493113 20:-0.348823 21:-0.429583 22:-0.348823 23:-0.429583 24:-0.251677 25:-0.997867 26:-0.901081 27:-0.983695 28:-0.999936 29:-0.985274 30:-0.727514 31:-0.997228 32:-0.654877 33:0.112816 34:-0.999857 
-2 0.7436390438315791 1.430574230435914 2 0.731121209871635 2 1:-0.96875 2:0.571116 3:1 4:-0.958158 5:-1 6:-1 7:1 8:-0.913282 9:-0.889315 10:-0.229464 11:-0.921948 12:-0.910905 13:-0.97901 14:0.690117 15:-0.791978 16:-0.937086 17:-0.952272 18:0.459815 19:-0.43135 20:-0.348345 21:-0.456546 22:-0.348345 23:-0.456546 24:-0.568992 25:-0.999925 26:-0.513539 27:-0.818308 28:-0.999306 29:-0.990484 30:-0.345402 31:-0.965229 32:-0.96825 33:-0.0709284 34:-0.999848 
-2 2 2 1.236677877692556 2 2 1:-0.9375 2:0.921225 3:1 4:-0.9672 5:-0.162479 6:-0.408239 7:1 8:-0.91171 9:-0.946383 10:-0.783651 11:-0.939948 12:-0.924922 13:-0.975314 14:0.694187 15:-0.799899 16:-0.914758 17:-0.959496 18:-0.50336 19:-0.7878 20:-0.829411 21:-0.72671 22:-0.829411 23:-0.72671 24:-0.579014 25:-0.99998 26:0.189393 27:-0.947811 28:-1 29:-0.999839 30:0.00161418 31:-0.900243 32:-0.7817 33:-0.929555 34:-1 
-2 1.123077588144082 2 2 0 1.140550302513787 1:-0.84375 2:-0.286652 3:0.977653 4:-0.803717 5:0.0351759 6:-0.0913664 7:-1 8:-0.918337 9:-0.88996 10:-0.312621 11:-0.932628 12:-0.913381 13:-0.976773 14:0.686736 15:-0.799961 16:-0.946678 17:-0.953635 18:0.590256 19:-0.841721 20:-0.789272 21:-0.899935 22:-0.789272 23:-0.899935 24:-0.961296 25:-1 26:-0.678949 27:0.531233 28:-0.999628 29:-0.999973 30:-0.86613 31:-1 32:-0.984607 33:-0.30159 34:-1 
-1.019888745100512 0.7133133132073293 0.09546924016961307 0 0.2342139028431602 0 1:-0.6875 2:-0.291028 3:0.988826 4:-0.701187 5:0.0217755 6:-0.135821 7:-1 8:-0.915878 9:-0.892311 10:-0.199831 11:-0.9176 12:-0.922374 13:-0.977688 14:0.6983 15:-0.799585 16:-0.935486 17:-0.952536 18:0.776453 19:-0.855551 20:-0.815195 21:-0.904065 22:-0.815195 23:-0.904065 24:-0.966802 25:-1 26:-0.605216 27:0.8475 28:-0.99986 29:-1 30:-0.693424 31:-1 32:-0.96707 33:-0.71667 34:-1 
-1.036284948855782 2 2 0 2 2 1:-0.8125 2:-0.291028 3:1 4:-0.828032 5:-1 6:-1 7:1 8:-0.914282 9:-0.902136 10:-0.244654 11:-0.917038 12:-0.91618 13:-0.97829 14:0.690619 15:-0.794562 16:-0.94084 17:-0.954122 18:0.10019 19:-0.775665 20:-0.591447 21:-0.92029 22:-0.591447 23:-0.92029 24:0.0123293 25:-0.983447 26:-0.918788 27:-0.0565406 28:-0.998807 29:-0.999956 30:-0.932365 31:-0.994311 32:-0.980486 33:-0.68889 34:-0.999475 
-0.5817984423755582 1.233657580869926 2 1.984153580609743 0.02983890299560132 0.6417226724236357 1:-0.71875 2:-1 3:0.932961 4:-0.619725 5:0.517588 6:-0.28595 7:1 8:-0.914959 9:-0.895908 10:-0.223563 11:-0.91931 12:-0.920516 13:-0.97781 14:0.698797 15:-0.796348 16:-0.937171 17:-0.951434 18:0.805536 19:-0.65759 20:-0.587624 21:-0.66293 22:-0.587624 23:-0.66293 24:-0.705956 25:-0.999945 26:-0.526577 27:-0.987841 28:-0.997331 29:-0.98698 30:0.0131005 31:-0.99767 32:-0.966782 33:0.0732396 34:-0.976441 
-0.3180169696475249 0.04699961042286074 0 1.139822264171137 0.2001409809396009 0.2468108691292265 1:-0.75 2:-0.295405 3:-0.96648 4:-0.775858 5:0.0217755 6:-0.227376 7:-1 8:-0.91925 9:-0.908821 10:-0.340579 11:-0.923425 12:-0.92567 13:-0.976834 14:0.668016 15:-0.790853 16:-0.955858 17:-0.946632 18:0.276019 19:-0.9086 20:-0.902282 21:-0.921175 22:-0.902282 23:-0.921175 24:-0.981919 25:-0.999847 26:-0.886714 27:0.382871 28:-1 29:-0.99988 30:-0.764346 31:-0.996297 32:-0.994525 33:0.0127308 34:-0.999978 
-2 2 2 2 1.261768232690831 2 1:-0.71875 2:0.129103 3:0.776536 4:-0.712318 5:-0.534338 6:-0.316392 7:-1 8:-0.908042 9:-0.887905 10:-0.165707 11:-0.923583 12:-0.927566 13:-0.977417 14:0.706312 15:-0.782827 16:-0.942401 17:-0.95701 18:0.129164 19:-0.736875 20:-0.795007 21:-0.75916 22:-0.795007 23:-0.75916 24:-0.731049 25:-1 26:-0.461071 27:-0.419669 28:0.077377 29:-0.708548 30:-0.992651 31:-1 32:-0.984324 33:-0.999962 34:-0.935562 
-0.9444903276250767 0.06342881675711067 0.1852239515338073 1.583664965701065 0.1605241097519032 1.256846531614326 1:-0.90625 2:0.0722101 3:1 4:-0.930694 5:-1 6:-1 7:-1 8:-0.919209 9:-0.874307 10:-0.369856 11:-0.905203 12:-0.929569 13:-0.975753 14:0.684272 15:-0.804936 16:-0.934943 17:-0.95347 18:0.967018 19:-0.892468 20:-0.835981 21:-0.95162 22:-0.835981 23:-0.95162 24:-0.838256 25:-0.99993 26:-0.772891 27:1 28:-0.996469 29:-0.991548 30:-0.825947 31:-0.999974 32:-0.967722 33:-0.769739 34:-0.999965 
-1.691731204297537 2 1.981164696687213 1.821115768473919 0.8489235695494429 1.149798369665001 1:-0.71875 2:-0.286652 3:1 4:-0.726551 5:-0.0150754 6:-0.25359 7:-1 8:-0.910647 9:-0.889439 10:-0.238359 11:-0.917197 12:-0.911475 13:-0.979838 14:0.657631 15:-0.787405 16:-0.931751 17:-0.949849 18:0.934239 19:-0.81739 20:-0.819257 21:-0.841171 22:-0.819257 23:-0.841171 24:-0.978083 25:-1 26:-0.987446 27:-1 28:-1 29:-0.292557 30:-0.999941 31:-1 32:0.507711 33:-0.996227 34:1 
-0 2 2 2 2 2 1:-0.90625 2:-0.238512 3:1 4:-0.912544 5:-0.477387 6:-0.360454 7:1 8:-0.914291 9:-0.895091 10:-0.243822 11:-0.923566 12:-0.916007 13:-0.977168 14:0.695533 15:-0.793166 16:-0.937387 17:-0.954963 18:0.0868635 19:-0.84065 20:-0.774262 21:-0.879049 22:-0.774262 23:-0.879049 24:-0.388387 25:-1 26:-0.516508 27:-0.816578 28:-0.999561 29:-0.986064 30:-0.559767 31:-0.999215 32:-0.945511 33:-0.184283 34:-0.998112 
-1.406202094175913 -1.0490301841685 1.183548383413299 0.8578394176179176 0.8465724625196897 1.409437022394042 1:-0.84375 2:0.496718 3:1 4:-0.766424 5:-0.343384 6:0.308732 7:0.897366 8:-0.911087 9:-0.901951 10:-0.266336 11:-0.909584 12:-0.93009 13:-0.979289 14:0.714453 15:-0.798923 16:-0.931001 17:-0.952472 18:0.78352 19:-0.452077 20:-0.357186 21:-0.628769 22:-0.357186 23:-0.628769 24:-0.989828 25:-1 26:-0.330979 27:-0.991041 28:-0.99701 29:0.279106 30:-0.850806 31:-1 32:-0.990063 33:-0.934871 34:0.202547 
-1.147625190521344 -2 1.580507118461146 0.8455465861414943 2 2 1:-0.96875 2:0.492341 3:1 4:-0.993258 5:-0.708543 6:-0.418172 7:1 8:-0.903363 9:-0.921176 10:-0.139206 11:-0.95179 12:-0.917733 13:-0.982739 14:0.727168 15:-0.763973 16:-0.931958 17:-0.95507 18:-0.58062 19:-0.797429 20:-0.811014 21:-0.802525 22:-0.811014 23:-0.802525 24:0.20207 25:-1 26:-1 27:-0.223139 28:-1 29:-1 30:-1 31:-1 32:-1 33:-0.628979 34:-1 
-2 -2 2 2 2 2 1:-0.875 2:-0.0940919 3:0.955307 4:-0.802667 5:0.0720268 6:-0.341432 7:0.898736 8:-0.914311 9:-0.891507 10:-0.34196 11:-0.920257 12:-0.92194 13:-0.977319 14:0.69851 15:-0.800943 16:-0.948675 17:-0.951483 18:-0.317686 19:-0.83601 20:-0.876717 21:-0.845006 22:-0.876717 23:-0.845006 24:-0.829759 25:-0.417728 26:-0.501227 27:-0.434006 28:-0.908077 29:-0.999436 30:-0.475167 31:-0.991156 32:-0.841831 33:-0.721773 34:-0.989916 
-0.9454776959291421 -0 0 0 0 1.171883098726926 1:-1 2:0.842451 3:1 4:-0.963137 5:-0.18258 6:-0.243317 7:-1 8:-0.90553 9:-0.904138 10:-0.422283 11:-0.851951 12:-0.919716 13:-0.966532 14:0.665491 15:-0.762605 16:-1 17:-0.917611 18:-0.301979 19:-0.990908 20:-1 21:-0.972919 22:-1 23:-0.972919 24:-0.995994 25:1 26:-0.966947 27:-0.628748 28:-0.985341 29:-1 30:-0.992405 31:-0.999505 32:-0.999539 33:-0.88294 34:-0.99595 
-1.666000736087864 -1.537965785801535 2 1.12670813174124 2 2 1:-0.84375 2:0.0459519 3:1 4:-0.966087 5:-0.480737 6:0.474627 7:0.414213 8:-0.913959 9:-0.902287 10:-0.227801 11:-0.926686 12:-0.912027 13:-0.977188 14:0.724699 15:-0.792276 16:-0.937511 17:-0.951992 18:-0.320375 19:-0.906152 20:-0.850197 21:-0.961473 22:-0.850197 23:-0.961473 24:-0.173994 25:-0.981265 26:-0.738194 27:-0.569341 28:0.0244339 29:-0.999132 30:-0.996221 31:-0.999947 32:-1 33:-0.974111 34:-0.988674 
-1.23300221912387 -1.788608251726807 1.144723228498737 1.903781970558532 1.167308540861063 1.38112976686322 1:1 2:-0.229759 3:1 4:1 5:0.19598 6:-0.319282 7:1 8:-0.911827 9:-0.89152 10:-0.125147 11:-0.908466 12:-0.924718 13:-0.975953 14:0.698807 15:-0.786548 16:-0.940859 17:-0.948878 18:0.791328 19:-0.495981 20:-0.371401 21:-0.593781 22:-0.371401 23:-0.593781 24:-0.782615 25:-0.807609 26:-0.751621 27:-0.465394 28:-0.998113 29:-0.96626 30:-0.313664 31:-0.80925 32:-0.499491 33:-0.392891 34:-0.980817 
-2 -1.054417299569383 2 2 1.186832264047986 1.621975734468031 1:-0.96875 2:0.321663 3:1 4:-0.921439 5:-1 6:-1 7:-1 8:-0.937744 9:-0.919231 10:-0.407496 11:-0.971172 12:-0.925078 13:-0.965492 14:0.701409 15:-0.860775 16:-0.911507 17:-0.931812 18:-0.215123 19:-0.842188 20:-0.850914 21:-0.876571 22:-0.850914 23:-0.876571 24:-0.280136 25:0.522615 26:-0.943828 27:-0.966551 28:-0.987873 29:-0.999832 30:-0.988487 31:-0.989123 32:-0.999453 33:-0.997602 34:-0.999036 
-0.4034233415137948 -1.223752664439991 0.8403482148940721 0.3988102585118733 2 2 1:-0.875 2:0.483589 3:1 4:-0.909963 5:0.668342 6:-0.388803 7:1 8:-0.919066 9:-0.889476 10:-0.0863998 11:-0.919611 12:-0.926996 13:-0.980903 14:0.712491 15:-0.842681 16:-0.947328 17:-0.941207 18:0.395439 19:-0.794049 20:-0.812687 21:-0.814915 22:-0.812687 23:-0.814915 24:0.0104696 25:-1 26:-0.310746 27:-0.945805 28:-0.909139 29:-0.960957 30:-0.997258 31:-0.999954 32:-0.999966 33:-0.898746 34:-0.47235 
-2 -2 2 2 0 1.353471838561581 1:-0.875 2:0.317287 3:1 4:-0.920904 5:-0.21608 6:-0.35392 7:-1 8:-0.911101 9:-0.887176 10:-0.216307 11:-0.929245 12:-0.919196 13:-0.979463 14:0.711868 15:-0.794862 16:-0.9387 17:-0.954489 18:0.825242 19:-0.854916 20:-0.935014 21:-0.81934 22:-0.935014 23:-0.81934 24:-0.939125 25:-1 26:0.0834067 27:-0.989032 28:-0.824074 29:-0.983232 30:-0.974611 31:-0.999974 32:-0.999602 33:-0.740879 34:0.460173 
-0 -0 0 0 2 0.0227705144592772 1:-0.96875 2:0.768053 3:1 4:-0.950944 5:0.346734 6:-0.250669 7:1 8:-0.902544 9:-0.909616 10:-0.104642 11:-0.884029 12:-0.892534 13:-0.9841 14:0.667065 15:-0.760422 16:-0.965991 17:-0.980831 18:-0.281203 19:-0.694218 20:-0.539959 21:-0.759455 22:-0.539959 23:-0.759455 24:-0.331993 25:-0.99274 26:-0.9999 27:-0.968833 28:-0.165585 29:-1 30:-1 31:-0.999974 32:-1 33:-0.994559 34:0.736097 
-2 -1.807122538925038 2 1.536056772031708 0.4339716627307455 1.208247199633931 1:-0.65625 2:-0.115974 3:1 4:-0.82391 5:-0.350084 6:-0.260644 7:-1 8:-0.890465 9:-0.884921 10:0.300251 11:-0.844942 12:-0.923637 13:-0.970625 14:0.618628 15:-0.79912 16:-0.943503 17:-0.957623 18:-0.482285 19:-0.610779 20:-0.810059 21:-0.559974 22:-0.810059 23:-0.559974 24:-0.733993 25:-0.813007 26:-0.349033 27:-0.580583 28:-0.758998 29:-0.583749 30:-0.993078 31:-0.992066 32:-0.999645 33:-0.952713 34:-0.312944 
-0.9061921880083675 -0.7579152620487653 0.3319717058137441 0.6001123982252391 0.9575344939616738 0.8206204963505053 1:-0.9375 2:0.628009 3:1 4:-0.958096 5:-1 6:-1 7:1 8:1 9:1 10:1 11:1 12:1 13:1 14:-1 15:1 16:1 17:1 18:0.713068 19:-0.707785 20:-0.527774 21:-0.565166 22:-0.527774 23:-0.565166 24:-0.591791 25:-1 26:-0.95966 27:-0.999988 28:-1 29:1 30:-1 31:-1 32:-0.0352046 33:-1 34:-1 
-0.7777598368163359 -0 -0 0.7072921874864091 0 0.209090238789563 1:-0.65625 2:-0.251641 3:1 4:-0.56323 5:-0.460637 6:-0.329868 7:-1 8:-0.914795 9:-0.842663 10:0.0712007 11:-0.892788 12:-0.921041 13:-0.980827 14:0.865841 15:-0.816289 16:-0.92965 17:-0.941851 18:0.678427 19:-0.813901 20:-0.788197 21:-0.823116 22:-0.788197 23:-0.823116 24:-0.958748 25:-1 26:0.317125 27:-0.999793 28:-1 29:-1 30:1 31:-1 32:-0.820095 33:-0.970809 34:-0.99954 
-0 -2 -1.829242519583132 0 2 1.222440843198757 1:-0.71875 2:-0.291028 3:1 4:-0.633816 5:-0.547739 6:-0.178008 7:1 8:-0.91156 9:-0.903522 10:-0.111482 11:-0.912989 12:-0.91286 13:-0.975084 14:0.686462 15:-0.805109 16:-0.934168 17:-0.974289 18:0.753117 19:-0.917983 20:-0.878868 21:-0.952859 22:-0.878868 23:-0.952859 24:-0.0664997 25:-0.99994 26:-0.171373 27:-0.988228 28:-0.998721 29:-0.799579 30:-0.422541 31:-0.981275 32:-0.874656 33:-0.998042 34:-0.99918 
-0.1771614415617308 -2 -0.04981370207752293 2 0 1.592964186240946 1:-0.59375 2:-0.107221 3:1 4:-0.557225 5:-0.564489 6:-0.271332 7:1 8:-0.916878 9:-0.894575 10:-0.497593 11:-0.943373 12:-0.923694 13:-0.973775 14:0.702946 15:-0.770336 16:-0.931714 17:-0.957337 18:0.120374 19:-0.690826 20:-0.578903 21:-0.49702 22:-0.578903 23:-0.49702 24:-0.621548 25:-1 26:-0.380298 27:-0.922514 28:-1 29:-0.998814 30:-0.0241111 31:-0.922789 32:0.322341 33:-0.857956 34:-1 
-1.039994518719556 -1.424137814442142 -2 1.625430163205707 2 0.891630402887085 1:-0.90625 2:-0.221007 3:0.977653 4:-0.916234 5:-0.0720268 6:-0.0826868 7:1 8:-0.905876 9:-0.922642 10:-0.473066 11:-0.910735 12:-0.916824 13:-0.977066 14:0.634129 15:-0.797937 16:-0.943114 17:-0.952508 18:-0.512658 19:-0.846899 20:-0.778641 21:-0.910378 22:-0.778641 23:-0.910378 24:-0.492983 25:-0.999357 26:-0.210167 27:-0.995161 28:-0.99882 29:-0.95669 30:-0.713152 31:-0.999531 32:0.583782 33:-0.956982 34:-0.974948 
-0.8888826301998302 -1.581215535297675 -2 2 0 0.6167686891504872 1:-0.875 2:-0.0547046 3:1 4:-0.824218 5:-0.480737 6:-0.066815 7:-0.63064 8:-0.932235 9:-0.901124 10:-0.256008 11:-0.94081 12:-0.93541 13:-0.978292 14:0.81763 15:-0.856466 16:-0.982448 17:-0.950022 18:0.836298 19:-0.78262 20:-0.710907 21:-0.867131 22:-0.710907 23:-0.867131 24:-0.982587 25:-1 26:-0.536338 27:-0.990683 28:-0.999469 29:-0.592505 30:-0.0673038 31:-0.998766 32:-0.879214 33:-0.405887 34:-0.0214489 
-2 -2 -2 2 1.614438585566397 2 1:-0.96875 2:0.317287 3:1 4:-0.897566 5:-0.537688 6:-0.243742 7:-0.105573 8:-0.917052 9:-0.889714 10:-0.301228 11:-0.929563 12:-0.914536 13:-0.975786 14:0.710408 15:-0.797181 16:-0.927996 17:-0.947908 18:0.47229 19:-0.709453 20:-0.496356 21:-0.884064 22:-0.496356 23:-0.884064 24:-0.802171 25:-1 26:-0.50905 27:-0.968359 28:-0.130654 29:-0.964068 30:-0.797944 31:-0.999908 32:-0.996061 33:-0.149562 34:-0.958739 
-1.658727621212341 -1.520500790049266 -2 2 0.6950950362044249 1.587016115302108 1:-0.9375 2:-0.269147 3:0.988826 4:-0.93445 5:-1 6:-1 7:-1 8:-0.913457 9:-0.881801 10:-0.33501 11:-0.909114 12:-0.926069 13:-0.977905 14:0.685289 15:-0.803588 16:-0.939846 17:-0.959403 18:0.00678524 19:-0.93879 20:-0.919245 21:-0.947431 22:-0.919245 23:-0.947431 24:-0.796185 25:0.297259 26:-0.918221 27:-0.675169 28:-0.999106 29:-1 30:-0.508033 31:-0.794617 32:-0.981148 33:-0.738462 34:-1 
-0.8140091357028572 -1.969010042738238 -0.09594648906809478 2 0 0.7304408165868478 1:-0.28125 2:-0.269147 3:1 4:-0.288246 5:-0.0519263 6:-0.0424284 7:-1 8:-0.912273 9:-0.876905 10:-0.199212 11:-0.901328 12:-0.899043 13:-0.978204 14:0.718269 15:-0.792527 16:-0.922362 17:-0.960709 18:0.929533 19:-0.795058 20:-0.812209 21:-0.827187 22:-0.812209 23:-0.827187 24:-0.957705 25:-1 26:-0.640584 27:-0.955553 28:-0.999768 29:-0.646559 30:-0.321345 31:-0.989967 32:-0.958836 33:0.371742 34:-0.999857 
-1.429698866313389 -0 -0 0.2570562122169965 0 0 1:-0.09375 2:-0.321663 3:0.96648 4:-0.468777 5:-0.484087 6:-0.40212 7:-0.37295 8:-0.911761 9:-0.886185 10:-0.1691 11:-0.920162 12:-0.91602 13:-0.979055 14:0.660482 15:-0.795929 16:-0.957815 17:-0.969454 18:0.607865 19:-0.953359 20:-0.982081 21:-0.924715 22:-0.982081 23:-0.924715 24:-0.900639 25:-1 26:0.186426 27:-0.80365 28:-0.752864 29:-0.647632 30:-0.901065 31:-0.999934 32:-0.120431 33:-0.999976 34:-0.994869 
-1.410179012537823 -1.296460505026619 -1.768926092842238 0.9529568626838227 0.8152633581087487 0.9090140367423188 1:0.28125 2:-0.317287 3:0.921788 4:-0.334175 5:-0.313233 6:-0.143497 7:-1 8:-0.9163 9:-0.911479 10:-0.426938 11:-0.962785 12:-0.917315 13:-0.971238 14:0.772144 15:-0.794739 16:-0.918353 17:-0.94793 18:-0.540093 19:-0.924323 20:-0.893561 21:-0.956281 22:-0.893561 23:-0.956281 24:-1 25:-1 26:-0.195601 27:-0.291997 28:-0.904892 29:-0.74421 30:0.323023 31:-0.999835 32:-0.823492 33:-0.999249 34:-0.88044 
-2 -0.8972334065299693 -1.337169847510011 1.657742175328854 0.3360756432542037 1.09259461857918 1:-0.8125 2:-0.26477 3:1 4:-0.854116 5:-1 6:-1 7:-1 8:-0.911646 9:-0.9093 10:-0.0936824 11:-0.921012 12:-0.915831 13:-0.977301 14:0.719864 15:-0.791112 16:-0.931834 17:-0.95031 18:0.324534 19:-0.980373 20:-0.97575 21:-0.971916 22:-0.97575 23:-0.971916 24:-0.185969 25:-1 26:-0.16469 27:-0.973422 28:-0.953983 29:-0.490344 30:-0.986178 31:-0.995353 32:-0.731899 33:-0.947411 34:-0.991431 
-2 -2 -2 2 2 2 1:-0.9375 2:0.0547046 3:1 4:-0.943946 5:-0.725293 6:-0.287921 7:1 8:-0.913558 9:-0.897007 10:-0.235184 11:-0.924253 12:-0.920131 13:-0.977401 14:0.693444 15:-0.802237 16:-0.939805 17:-0.950918 18:-0.163814 19:-0.842846 20:-0.810297 21:-0.882943 22:-0.810297 23:-0.882943 24:-0.0636581 25:-0.85386 26:-0.569529 27:-0.626978 28:-0.853905 29:-0.982316 30:-0.960773 31:-0.93867 32:-0.896828 33:-0.787761 34:-0.98528 
-2 -2 -2 -2 1.829396589926126 2 1:-0.96875 2:0.229759 3:0.854749 4:-0.954437 5:-1 6:-1 7:0.898736 8:-0.916299 9:-0.893731 10:-0.260652 11:-0.916829 12:-0.920381 13:-0.98153 14:0.697949 15:-0.792046 16:-0.939819 17:-0.951138 18:0.528305 19:-0.818922 20:-0.917573 21:-0.759573 22:-0.917573 23:-0.759573 24:-0.958937 25:0.0379769 26:-0.798187 27:-0.621361 28:-0.872271 29:-0.82695 30:-0.593638 31:-0.569137 32:-0.983484 33:-0.731329 34:-0.992442 
-0 -0.5641706119367587 -0 -0 0 0 1:-0.96875 2:-0.273523 3:1 4:-1 5:-0.705193 6:-0.301742 7:-1 8:-0.910532 9:-0.881455 10:-0.235465 11:-0.928429 12:-0.911811 13:-0.976708 14:0.648228 15:-0.79217 16:-0.934336 17:-0.94731 18:0.836596 19:-0.887985 20:-0.825588 21:-0.924066 22:-0.825588 23:-0.924066 24:-0.94692 25:-1 26:-0.82473 27:-0.953998 28:-1 29:-0.96974 30:-0.788035 31:-0.998957 32:-0.990312 33:1 34:-0.999913 
-0.07704742464689053 -0 -0.7508040948984843 -1.4473768832191 0 0 1:-0.84375 2:-0.247265 3:1 4:-0.888189 5:-0.551089 6:-0.125649 7:-1 8:-0.915582 9:-0.884747 10:-0.259918 11:-0.925457 12:-0.923851 13:-0.977991 14:0.656011 15:-0.796311 16:-0.941552 17:-0.949731 18:-0.12873 19:-0.791489 20:-0.776012 21:-0.812968 22:-0.776012 23:-0.812968 24:-0.987608 25:-0.8306 26:-0.767581 27:-0.981918 28:-0.999975 29:-0.988799 30:-0.795951 31:-0.915001 32:-0.998642 33:0.840062 34:-0.999926 
-2 -2 -2 -2 2 2 1:-0.65625 2:-0.172867 3:0.642458 4:-0.626928 5:0.118928 6:-0.17131 7:1 8:-0.913751 9:-0.911867 10:-0.25396 11:-0.917611 12:-0.906465 13:-0.977931 14:0.67425 15:-0.798136 16:-0.947459 17:-0.95469 18:0.21711 19:-0.541895 20:-0.493609 21:-0.655024 22:-0.493609 23:-0.655024 24:-0.624211 25:-0.959649 26:-0.653408 27:-0.931136 28:0.00512347 29:-0.977533 30:-0.0556785 31:-0.74227 32:-0.811319 33:-0.86788 34:-0.999766 
-0.8307093022823914 -0.5159549961287587 -0 -1.481623576616787 0 0.7367954544316842 1:-0.9375 2:0.282276 3:1 4:-0.931272 5:-1 6:-1 7:-1 8:-0.912719 9:-0.896458 10:-0.20603 11:-0.929929 12:-0.91955 13:-0.977809 14:0.705431 15:-0.798372 16:-0.937116 17:-0.952975 18:-0.0866394 19:-0.538275 20:-0.414885 21:-0.607882 22:-0.414885 23:-0.607882 24:-0.628743 25:-1 26:-0.662932 27:-0.922636 28:-0.998995 29:-0.996772 30:-0.493126 31:-1 32:-0.987112 33:0.327561 34:-0.999323 
-0 -2 -0 -2 0 0.375800862605779 1:-0.84375 2:-0.129103 3:1 4:-0.80689 5:0.169179 6:-0.235078 7:-0.105573 8:-0.915516 9:-0.906676 10:-0.326472 11:-0.875111 12:-0.913712 13:-0.981647 14:0.73314 15:-0.812427 16:-0.957011 17:-0.953449 18:0.226617 19:-0.753515 20:-0.747342 21:-0.776388 22:-0.747342 23:-0.776388 24:-0.98464 25:-0.975705 26:-0.909689 27:-0.983718 28:-0.984991 29:-0.991001 30:0.173177 31:-0.959679 32:0.0994434 33:0.143135 34:-0.999592 
-2 -2 -2 -2 0.7414647676964633 2 1:-0.96875 2:0.422319 3:1 4:-0.948116 5:-1 6:-1 7:-1 8:-0.912447 9:-0.895068 10:-0.250295 11:-0.916605 12:-0.916238 13:-0.9775 14:0.70296 15:-0.793756 16:-0.932588 17:-0.948373 18:0.259953 19:-0.841313 20:-0.788914 21:-0.913859 22:-0.788914 23:-0.913859 24:-0.725585 25:-0.911436 26:-0.191283 27:-0.631925 28:-0.778331 29:-0.763282 30:-0.83669 31:-0.909219 32:-0.898335 33:-0.79102 34:-0.683106 
-2 -1.401106208423412 -0.8856916159934182 -0 1.099994255929026 0.8560472436662158 1:-0.65625 2:-0.207877 3:1 4:-0.566233 5:-0.239531 6:-0.391996 7:-1 8:-0.913606 9:-0.898424 10:-0.277392 11:-0.924484 12:-0.913209 13:-0.976859 14:0.710152 15:-0.791713 16:-0.934857 17:-0.954779 18:-0.191951 19:-0.342349 20:0.0903118 21:-0.380789 22:0.0903118 23:-0.380789 24:-0.551764 25:-0.978637 26:-0.924292 27:-0.881424 28:-0.99644 29:-1 30:-0.956706 31:-0.992878 32:-0.999583 33:0.66129 34:-0.999983 
-0.889581359646771 -1.284202640159492 -1.06313344611882 -1.76069585487622 0 0.9539065025721104 1:-0.96875 2:0.326039 3:1 4:-0.933125 5:0.128978 6:-0.1651 7:-1 8:-0.903337 9:-0.884381 10:-0.113645 11:-0.919903 12:-0.908063 13:-0.973414 14:0.738404 15:-0.775328 16:-0.937616 17:-0.946998 18:1 19:-0.934367 20:-0.908135 21:-0.951443 22:-0.908135 23:-0.951443 24:-0.999534 25:-0.99779 26:-0.874969 27:-0.996794 28:-0.978234 29:-0.957808 30:-0.149846 31:-0.999947 32:-0.951835 33:0.517837 34:-0.463394 
-2 -2 -1.930822221017722 -2 0.8582239872397506 2 1:-0.9375 2:-0.00218818 3:1 4:-0.912185 5:-0.152429 6:-0.232098 7:-1 8:-0.917423 9:-0.898468 10:-0.187873 11:-0.906118 12:-0.913841 13:-0.978401 14:0.723041 15:-0.78867 16:-0.940489 17:-0.955317 18:0.675021 19:-0.76534 20:-0.677458 21:-0.864889 22:-0.677458 23:-0.864889 24:-0.896365 25:-0.999645 26:-0.577036 27:0.684376 28:-0.993676 29:-0.894584 30:-0.718796 31:-0.999314 32:-0.742512 33:-0.873023 34:-0.998476 
-1.716542326710863 -2 -2 -2 1.462603846857838 1.799034116923543 1:-0.15625 2:-0.269147 3:0.955307 4:-0.0609469 5:-0.19598 6:-0.240969 7:1 8:-0.919951 9:-0.892414 10:-0.310022 11:-0.861349 12:-0.918625 13:-0.976629 14:0.596326 15:-0.796989 16:-0.943593 17:-0.995342 18:0.420837 19:-0.661553 20:-0.58189 21:-0.708006 22:-0.58189 23:-0.708006 24:-0.312558 25:-1 26:-0.560294 27:-0.900688 28:-0.984482 29:-0.99696 30:-0.977514 31:-0.992159 32:1 33:-0.952782 34:-0.992994 
-1.42337745517648 -2 -0.6384041567995604 -0.5107812862096822 0.7231938234635051 0.7165113405512178 1:-0.3125 2:-0.330416 3:-1 4:-0.527578 5:-0.340034 6:-0.201231 7:-0.92144 8:-0.912924 9:-0.897169 10:-0.256966 11:-0.931216 12:-0.918396 13:-0.978426 14:0.701796 15:-0.795414 16:-0.941725 17:-0.948528 18:0.257946 19:-0.635427 20:-0.445944 21:-0.646587 22:-0.445944 23:-0.646587 24:-0.504356 25:-0.993702 26:-0.919386 27:-0.963441 28:-1 29:-0.999935 30:-0.876975 31:-0.983684 32:-0.945977 33:0.620385 34:-1 
-1.653602185548907 -1.500062852877129 -1.344398251477918 -0.8434820277386669 -1.423566484936933 1.365936600686032 1:0.71875 2:-0.321663 3:-1 4:0.127687 5:0.125628 6:0.137856 7:-1 8:-0.927166 9:-0.77353 10:0.287638 11:-1 12:-0.900114 13:-0.970178 14:0.531443 15:-0.85056 16:-0.904862 17:-0.99151 18:-0.57924 19:-0.685638 20:-0.783299 21:-0.704938 22:-0.783299 23:-0.704938 24:-0.299511 25:-0.782636 26:-0.676276 27:-0.910576 28:-0.996294 29:-0.967877 30:-0.998466 31:1 32:-0.822408 33:-0.964667 34:-0.814378 
-0.3718952033359426 -0 -0 -0 -0.01737373070363163 2 1:-0.84375 2:-0.194748 3:1 4:-0.810579 5:0.0686767 6:0.206649 7:1 8:-0.914067 9:-0.896351 10:-0.24531 11:-0.919268 12:-0.915945 13:-0.978022 14:0.695508 15:-0.794019 16:-0.937414 17:-0.953228 18:-0.460961 19:-0.387924 20:-0.381675 21:-0.511358 22:-0.381675 23:-0.511358 24:0.652894 25:-0.999922 26:-1 27:-0.782733 28:-0.999144 29:-1 30:-0.999968 31:-1 32:-1 33:-0.688593 34:-1 
-0.5923710679440248 -1.335496283667528 -0.9223580485425075 -1.061235676501952 -0 0 1:-0.9375 2:-0.286652 3:1 4:-0.890083 5:0.226131 6:-0.389053 7:1 8:-0.911356 9:-1 10:-0.330738 11:-0.92459 12:-0.916202 13:-0.97486 14:1 15:-0.806627 16:-0.905066 17:-0.958218 18:-0.964607 19:-0.826759 20:-0.807908 21:-0.869904 22:-0.807908 23:-0.869904 24:0.220619 25:-1 26:-0.245319 27:-0.796916 28:-0.945845 29:-1 30:-0.987552 31:-1 32:-1 33:-0.988806 34:-0.997916 
-2 -2 -2 -1.065455096221525 -2 2 1:-0.78125 2:0.636761 3:1 4:-0.901931 5:0.443886 6:0.341108 7:0.414213 8:-0.913437 9:-0.900906 10:-0.263255 11:-0.918193 12:-0.916303 13:-0.976603 14:0.688989 15:-0.799197 16:-0.936136 17:-0.955826 18:-0.0419042 19:-0.148724 20:0.206935 21:-0.457549 22:0.206935 23:-0.457549 24:-0.309985 25:-1 26:-0.959842 27:-0.0345836 28:-0.987968 29:-1 30:-0.999893 31:-0.999868 32:-0.999712 33:-0.243582 34:-1 
-0 -0 -1.869290262484168 -0.4817344753316436 -0 0.5779143234736335 1:-0.9375 2:0.330416 3:1 4:-0.906161 5:0.172529 6:0.0801 7:1 8:-0.927443 9:-0.891789 10:-0.541697 11:-0.865959 12:-0.92461 13:-0.974174 14:0.562664 15:-0.783261 16:-0.905158 17:-0.987725 18:-0.390758 19:-0.621483 20:-0.465058 21:-0.781698 22:-0.465058 23:-0.781698 24:0.19362 25:-1 26:-0.417231 27:-0.995889 28:-0.772458 29:-0.995812 30:-1 31:-1 32:-0.907653 33:-0.99785 34:-0.629221 
-0 -0.2984456815068884 -0 -0.005405773694237906 -0 0 1:-0.8125 2:-0.317287 3:0.988826 4:-0.905214 5:-1 6:-1 7:1 8:-1 9:-0.844273 10:-0.0211391 11:-0.807284 12:-0.921483 13:-0.994957 14:0.273329 15:-0.836673 16:-0.921881 17:-0.894817 18:-0.36526 19:-1 20:-0.98232 21:-1 22:-0.98232 23:-1 24:1 25:-0.906848 26:-0.999806 27:-0.999351 28:-1 29:-1 30:-1 31:-1 32:-0.998796 33:-1 34:-1 
-0.1847651974911163 -0.2420973263650698 -0.6858436399043872 -0.9140290583727289 -0.7316633646357702 0 1:-0.71875 2:0.273523 3:1 4:-0.734022 5:0.809045 6:-0.221623 7:1 8:-0.905055 9:-0.901055 10:-0.506078 11:-0.910189 12:-0.928516 13:-0.978364 14:0.799648 15:-0.831254 16:-0.902999 17:-0.95863 18:-1 19:-0.956868 20:-0.959861 21:-0.954688 22:-0.959861 23:-0.954688 24:0.260278 25:-0.910909 26:-0.892441 27:-0.918621 28:-0.996551 29:-0.980398 30:-0.938228 31:-0.996231 32:0.0763351 33:-0.901086 34:-1 
-2 -2 -2 -2 -2 2 1:-0.875 2:0.234136 3:1 4:-0.79632 5:-1 6:-1 7:1 8:-0.911232 9:-0.902301 10:-0.268367 11:-0.921317 12:-0.911051 13:-0.974176 14:0.683492 15:-0.791796 16:-0.944193 17:-0.941161 18:-0.0682184 19:-0.857443 20:-0.784255 21:-0.939996 22:-0.784255 23:-0.939996 24:-0.151954 25:-1 26:-0.474069 27:-0.183429 28:-0.933963 29:-1 30:-0.994612 31:-1 32:-1 33:-0.837762 34:-1 
-0.7498507432501943 -2 -2 -2 -1.124168727665616 2 1:-0.90625 2:0.571116 3:1 4:-0.93306 5:-0.742044 6:-0.389249 7:1 8:-0.920874 9:-0.875252 10:-1 11:-0.845866 12:-0.908132 13:-0.977851 14:0.698177 15:-0.734064 16:-0.917731 17:-0.943321 18:-0.0568541 19:-0.91066 20:-0.841477 21:-0.97581 22:-0.841477 23:-0.97581 24:0.0834325 25:-1 26:-0.582782 27:-0.99931 28:-0.542285 29:-0.991189 30:-0.99992 31:-0.999769 32:-0.98633 33:-1 34:-0.336224 
-0 -0.1889268237981292 -0.9685832809530254 -0 -0 2 1:-0.9375 2:0.207877 3:1 4:-0.893689 5:-0.0854271 6:-0.208923 7:1 8:-0.916302 9:-0.899466 10:-0.206589 11:-0.914702 12:-0.910675 13:-0.973693 14:0.702536 15:-0.798792 16:-0.952897 17:-0.940453 18:-0.261004 19:-0.718185 20:-0.722853 21:-0.780518 22:-0.722853 23:-0.780518 24:0.454404 25:-1 26:-1 27:-0.319827 28:-0.999386 29:-1 30:-0.999898 31:-1 32:-1 33:-0.840918 34:-1 
-0.8816136571535281 -0.5623550285713568 -2 -0.3591249041191894 -0.9506877412845327 1.453552623212068 1:-1 2:0.934354 3:1 4:-0.948176 5:1 6:-0.300111 7:1 8:-0.918357 9:-0.857427 10:-0.00148005 11:-0.992862 12:-0.924203 13:-0.990277 14:0.639447 15:-0.764274 16:-0.928408 17:-0.966126 18:0.033727 19:-0.981165 20:-0.958547 21:-0.993333 22:-0.958547 23:-0.993333 24:-0.117188 25:-1 26:-0.999341 27:-0.891231 28:0.694847 29:-1 30:-1 31:-1 32:-1 33:-0.989234 34:-1 
-0.3798576218804305 -0.7628519507528412 -0.801745940759152 -0.7304056111538304 -0.4674172218862243 0.946543680279946 1:-0.875 2:-0.321663 3:0.988826 4:-0.906198 5:-1 6:-1 7:1 8:-0.922701 9:-0.84199 10:0.851377 11:-0.703403 12:-0.998366 13:-0.959751 14:-0.0343481 15:-1 16:-0.64201 17:-0.860766 18:-0.632357 19:-0.89484 20:-0.846016 21:-0.939819 22:-0.846016 23:-0.939819 24:0.893893 25:-1 26:-0.793313 27:-0.995146 28:-1 29:-1 30:-1 31:-1 32:-1 33:-1 34:-1 
-2 -0.6547920583482044 -0.694985974434079 -0 -0.6345496449203797 -0.4219107173909558 1:-0.78125 2:0.829322 3:1 4:-0.869477 5:-0.222781 6:-0.264713 7:0.712862 8:-0.91704 9:-0.910605 10:-0.189003 11:-0.93796 12:-0.93891 13:-0.980218 14:0.678575 15:-0.790227 16:-0.952584 17:-0.965452 18:-0.0135033 19:1 20:0.712404 21:1 22:0.712404 23:1 24:-0.801006 25:-0.993635 26:0.156013 27:-0.90834 28:-0.477304 29:-0.937259 30:-0.922771 31:-0.999947 32:-0.993398 33:-0.914706 34:-0.3572 
-2 -2 -2 -1.675350601593607 -2 -2 1:-0.90625 2:0.628009 3:1 4:-0.981113 5:0.313233 6:-0.243514 7:-1 8:-0.909807 9:-0.890293 10:-0.384172 11:-0.964429 12:-0.913635 13:-0.97598 14:0.832161 15:-0.835972 16:-0.919623 17:-1 18:-0.299076 19:-0.629143 20:-0.447139 21:-0.780872 22:-0.447139 23:-0.780872 24:-0.40419 25:-0.999922 26:-0.397498 27:-0.822879 28:-0.0279811 29:-1 30:-1 31:-0.999531 32:-0.999746 33:-0.992694 34:-0.612764 
-0.7845641465119612 -2 -2 -1.86388100662942 -1.89321551478762 -1.835173198051762 1:-0.9375 2:0.956236 3:1 4:-0.93918 5:-0.0921273 6:-0.209018 7:1 8:-0.914372 9:-0.896766 10:-0.322403 11:-0.910419 12:-0.921335 13:-0.97764 14:0.702256 15:-0.788316 16:-0.938718 17:-0.951471 18:0.655424 19:-0.919447 20:-0.88711 21:-0.961945 22:-0.88711 23:-0.961945 24:-0.744444 25:-0.99348 26:-0.563232 27:-0.528088 28:-0.953833 29:-0.9996 30:-0.910803 31:-0.998099 32:-1 33:0.18052 34:-0.982362 
-0 -0.5296320759626503 -0.4771336593723862 -0 -0 -0.8977023489896328 1:-0.90625 2:0.343545 3:1 4:-0.924715 5:-0.695142 6:-0.26329 7:1 8:-0.909394 9:-0.890177 10:-0.247477 11:-0.918552 12:-0.916706 13:-0.977289 14:0.7082 15:-0.799116 16:-0.93803 17:-0.95449 18:-0.340604 19:-0.559852 20:-0.556206 21:-0.623636 22:-0.556206 23:-0.623636 24:-0.27289 25:-1 26:-1 27:0.819804 28:-1 29:-1 30:-1 31:-1 32:-1 33:-0.94066 34:-1 
-2 -2 -2 -2 -2 -1.728617152023258 1:-0.875 2:0.234136 3:1 4:-0.911154 5:-1 6:-1 7:0.414213 8:-0.915389 9:-0.900832 10:-0.178322 11:-0.931161 12:-0.917766 13:-0.978184 14:0.70582 15:-0.794442 16:-0.935959 17:-0.953246 18:0.0930586 19:-0.847479 20:-0.905985 21:-0.802348 22:-0.905985 23:-0.802348 24:-0.0827523 25:-1 26:-1 27:0.274166 28:-1 29:-1 30:-1 31:-1 32:-1 33:-0.710279 34:-1 
-2 -2 -1.975116420466244 -2 -2 -0.2014264365931336 1:-0.96875 2:0.90372 3:1 4:-0.945229 5:-1 6:-1 7:-1 8:-0.897099 9:-0.946335 10:-0.445948 11:-0.872763 12:-0.953028 13:-0.990893 14:0.669924 15:-0.762439 16:-0.947131 17:-0.948651 18:0.0229105 19:-0.951081 20:-0.941823 21:-0.944599 22:-0.941823 23:-0.944599 24:-0.783029 25:-0.999222 26:0.0599177 27:-0.960401 28:-0.995514 29:-0.997911 30:-0.137611 31:-0.996548 32:0.229183 33:-0.966318 34:-1 
-2 -0.9678460138465723 -2 -1.407150462279523 -1.64948349655067 -0.3389635696038698 1:-0.9375 2:1 3:1 4:-0.92879 5:-0.128978 6:0.347275 7:-0.738082 8:-0.913617 9:-0.893036 10:-0.128885 11:-0.911895 12:-0.924216 13:-0.975887 14:0.696429 15:-0.797312 16:-0.93619 17:-0.954615 18:-0.0141606 19:-0.933128 20:-0.927727 21:-0.947313 22:-0.927727 23:-0.947313 24:-0.409308 25:0.0388269 26:-1 27:-0.65668 28:-0.926986 29:-1 30:-1 31:-1 32:-1 33:-0.618597 34:-1 
-1.590272733438102 -0.9617382688300431 -0.4523593938965732 -0 -0.03649314799767867 -0 1:-0.9375 2:0.531729 3:1 4:-0.983704 5:-0.654941 6:-0.110096 7:1 8:-0.914896 9:-0.894919 10:-0.203224 11:-0.924016 12:-0.921497 13:-0.976285 14:0.683154 15:-0.797683 16:-0.936214 17:-0.955947 18:-0.465487 19:-0.636941 20:-0.428384 21:-0.706708 22:-0.428384 23:-0.706708 24:-0.580543 25:-1 26:-1 27:0.778415 28:-1 29:-1 30:-1 31:-1 32:-1 33:-0.551593 34:-1 
-1.858463693587761 -1.814284045217124 -1.842638587845836 -1.798785727465312 -1.224353716494201 -2 1:-0.5625 2:-0.273523 3:1 4:-0.70068 5:-0.497487 6:0.452359 7:1 8:-0.905509 9:-0.906805 10:-0.312531 11:-0.916769 12:-0.930831 13:-0.98248 14:0.69511 15:-0.822695 16:-0.968167 17:-0.949816 18:-0.189153 19:-0.201469 20:0.110262 21:-0.21724 22:0.110262 23:-0.21724 24:0.557268 25:-0.999977 26:-0.622006 27:-0.974232 28:-0.999602 29:-0.986043 30:-0.687314 31:-0.999842 32:-0.984022 33:-0.962781 34:-0.996423 
-0 -0.8083314863632674 -0.9715259482526089 -0.1067921495094299 -0 -2 1:-0.96875 2:0.798687 3:1 4:-0.942533 5:-0.872697 6:-0.140156 7:1 8:-0.914523 9:-0.894343 10:-0.22556 11:-0.925774 12:-0.919905 13:-0.979166 14:0.679282 15:-0.799468 16:-0.941032 17:-0.952789 18:0.403108 19:-0.847803 20:-0.738831 21:-0.962004 22:-0.738831 23:-0.962004 24:0.226941 25:-1 26:-1 27:0.0547848 28:-1 29:-1 30:-1 31:-0.925858 32:-1 33:-0.913715 34:-1 
-2 -2 -2 -2 -2 -0.9201538049990664 1:-0.75 2:-0.308534 3:0.0167598 4:-0.798609 5:0.132328 6:-0.374196 7:1 8:-0.910579 9:-0.910522 10:-0.306814 11:-0.902366 12:-0.924698 13:-0.982186 14:0.657112 15:-0.785582 16:-0.933989 17:-0.959067 18:0.914429 19:-0.374514 20:-0.467089 21:-0.333648 22:-0.467089 23:-0.333648 24:-0.72998 25:-0.999365 26:-0.292854 27:-0.33148 28:-0.974041 29:-0.978829 30:-0.455375 31:-0.929192 32:-0.792059 33:-0.624097 34:-0.937168 
-0 -0 -0.5757756871897867 -0 -0 -2 1:-0.96875 2:0.733042 3:1 4:-0.981044 5:-0.102178 6:-0.354988 7:1 8:-0.928327 9:-0.872127 10:0.367852 11:-0.922348 12:-1 13:-1 14:0.446254 15:-0.805724 16:-0.893904 17:-0.902364 18:-0.357436 19:-0.286093 20:-0.246207 21:-0.227801 22:-0.246207 23:-0.227801 24:0.426696 25:-1 26:-0.998425 27:-0.276944 28:-0.999866 29:-1 30:-0.967112 31:-1 32:-1 33:-0.86025 34:-1 
